DISCIPLINA,0,1,2,3,4,5,6,7,8,9,10,11,12,13,14,15,16,17,18,19,20,21,22,23,24,25,26,27,28,29,30,31,32,33,34,35,36,37,38,39,40,41,42,43,44,45,46,47,48,49,50,51,52,53,54,55,56,57,58,59,60,61,62,63
ESZR007-21,0.011972113,0.005707808,0.0010534413,-0.012386829,0.01436984,0.008323086,-0.0022811908,-0.0059628002,-0.010825077,0.009220133,-0.0076729935,0.009838996,-0.007474052,-0.009607982,0.011563174,-0.002355231,-0.001602497,-0.0008914899,-0.008482724,0.01146511,-0.0049075317,-0.005978223,0.012127524,0.013490142,0.0033916421,-0.0051392037,-0.0074505135,0.003610976,0.008040963,0.006601475,-0.0026713442,0.015534919,-0.004378194,0.013380002,-0.006973438,0.014466815,0.00448915,0.009575708,-0.008798212,-0.015128966,-0.0027454663,-0.0131020695,-0.0040284283,-0.005455354,0.013188679,-0.006604284,-0.00921425,-0.006908767,0.003900664,0.0005755201,-0.011425732,0.008189436,0.011104664,0.0021780804,-0.0027707964,0.013406005,-0.015152942,0.0010045953,-0.0113108605,0.008533424,-0.0047402456,-0.004959099,-0.00018574484,0.006997401
NHBB003-23,-0.11907389,0.11101269,0.14705124,0.108581245,-0.00939597,-0.17716858,0.19739975,-0.039576974,0.032392256,-0.00089384936,0.12686794,0.16520706,0.21089163,-0.22321182,-0.120623566,0.052797526,-0.077381834,0.13525735,0.28283817,0.2602419,-0.16833392,0.0899278,0.18108141,-0.35095078,-0.08912573,0.2370513,-0.13415098,0.06950808,0.21165584,0.10260786,0.1857715,0.24396294,-0.4121324,-0.029965948,0.0048689106,0.00934534,-0.03551475,0.27732992,0.16395573,0.025077146,0.35498032,0.072693326,0.05788636,-0.008341756,0.027870085,-0.014439033,0.11959203,-0.34885952,-0.18681647,0.07958473,0.26602986,0.042296223,-0.0061568273,0.18238893,0.080706336,-0.030860653,0.010338134,-0.015619851,0.070765294,-0.24786213,0.0675897,-0.12869821,-0.095166594,0.066057935
NHBB004-23,-0.1178148,0.08070925,0.12521036,0.09763021,0.012962118,-0.11645238,0.16970581,-0.041056387,0.057316475,-0.016327249,0.14828146,0.158189,0.24530591,-0.2071415,-0.13561834,0.005315006,-0.07220631,0.14024475,0.32239926,0.29179415,-0.20460479,0.05212367,0.21330363,-0.33701807,-0.09364884,0.21410516,-0.07866748,0.04841671,0.23033339,0.10509817,0.16430931,0.21386328,-0.44572696,-0.033764157,0.009607941,0.047247052,-0.11114979,0.25106388,0.22783254,0.04196749,0.34291282,0.05993144,0.08235786,-0.0188474,0.055497043,-0.027723264,0.13559525,-0.3302578,-0.16068834,0.06104655,0.27516747,0.02595616,0.042104192,0.21370973,0.047704592,-0.01287049,-0.013879324,-0.040595073,0.1217795,-0.2646623,0.09973896,-0.123136975,-0.11489521,0.097679146
NHBB005-23,-0.017913114,0.3229333,0.20279995,0.13328359,0.00829747,-0.21390928,0.28597406,-0.10315915,0.086130776,0.03188035,0.36255634,0.2367,0.52828175,-0.42309192,-0.07719424,0.13291222,-0.03683358,0.2107189,0.4755514,0.25137538,-0.16108191,0.15691271,0.33051473,-0.502279,-0.19948478,0.38846985,-0.108950146,0.2887378,0.3682965,0.044966593,0.23758674,0.4056305,-0.5864196,-0.015067626,-0.060221106,-0.1320308,-0.022467624,0.3978715,0.3245592,0.09639444,0.6152901,0.18580979,-0.00068097794,-0.061259653,0.1368667,0.016596768,0.054244958,-0.40718794,-0.29810405,0.18076059,0.28283545,0.041068986,0.013148594,0.32578743,0.06853493,-0.024000986,0.025301356,-0.11319219,0.12924904,-0.38234833,0.13855119,-0.1982305,-0.014557965,0.07819307
NHBB006-23,-0.35753024,0.07096997,0.44197926,0.10220116,0.4051219,-0.2894283,0.124934115,0.0028547593,0.42889455,-0.24298884,0.52244776,0.1324329,0.08935188,-0.25856823,-0.6059478,0.032408483,0.05169291,0.12474871,0.84337765,0.78164905,0.053817462,-0.16254972,0.40849185,-0.98229975,-0.9144066,0.5704906,-0.32266036,-0.01586135,0.58835554,0.017612476,0.26330212,0.21473664,-1.3013208,0.4406879,0.10914867,0.4968853,0.48793855,0.7743533,0.67306536,-0.42458537,0.1347954,0.5482503,0.234865,-0.4564665,0.85430676,-0.051912148,0.7657929,-0.7206674,-0.7106559,-0.049209673,0.28968358,-0.079098806,-0.20129094,0.5560197,0.7280223,-0.39325354,-0.023130786,0.0141157545,-0.020055685,-0.87192947,0.36835855,-0.37150615,0.15774511,-0.28322068
NHBB007-23,-0.11094376,0.09551414,0.11910682,0.070802376,-0.0031740973,-0.12854083,0.14333478,-0.021673812,0.065100595,-0.028132379,0.1536761,0.17645311,0.2127866,-0.19995907,-0.105816625,0.03936791,-0.054985307,0.12793759,0.25866967,0.22365786,-0.19042408,0.07914967,0.1808054,-0.28145495,-0.08012339,0.22342953,-0.10051329,0.037367396,0.17796789,0.085667744,0.15498479,0.22821651,-0.41401088,0.00011764308,0.010687874,0.022506572,-0.09026256,0.24702217,0.1612145,0.031808827,0.29918647,0.051702898,0.09188705,-0.00849019,0.036586303,-0.005346838,0.101399824,-0.2861958,-0.15386665,0.05903425,0.22882901,0.010204596,0.012907935,0.18791464,0.051199727,-0.021070836,-0.017671525,-0.022724306,0.07927417,-0.20701948,0.07321268,-0.11299738,-0.08540401,0.06282768
NHBB008-23,-0.18906723,0.09193564,0.32519028,0.42430764,-0.09532822,-0.42250168,0.44659275,-0.052038636,-0.11059801,-0.0642368,0.2206936,0.46964547,0.42311347,-0.1126293,-0.18536216,0.0405796,-0.24697818,0.32982278,0.23078667,0.2857915,-0.18004268,0.29940385,0.37778094,-0.69057953,0.007673222,0.2856002,-0.21702167,0.2728902,0.18657576,0.15623224,0.26062912,0.60095143,-0.4802909,0.031361736,0.11353736,0.0719356,0.038808487,0.41479826,0.26399606,0.024560029,0.63428533,0.22404431,0.09190121,-0.01992002,0.078512,-0.04872349,-0.011084138,-0.3636766,-0.45479867,0.3585357,0.44948822,0.06556323,0.037248813,0.33538073,0.22289434,-0.009654746,0.067662746,-0.06880645,0.10899521,-0.2932842,0.081222154,-0.11560487,-0.17635359,0.1673354
ESZM035-17,-0.096221305,0.20047149,0.14333792,0.04579559,-0.028546998,-0.18563074,0.23799366,0.008468963,-0.0041659153,-0.050441287,0.20203207,0.24390367,0.19542351,-0.2534322,-0.19096924,0.039995894,-0.11293835,0.2058584,0.37903813,0.16745968,-0.18801056,0.14559169,0.2831083,-0.35755926,-0.09090452,0.16054451,-0.13921581,0.099738024,0.27539492,0.09394718,0.23707317,0.21049793,-0.3984871,-0.03388408,-0.06017571,0.08102095,-0.08272077,0.30991486,0.20799269,-0.036993627,0.35825527,0.14705826,0.07489455,-0.12080941,0.05533767,-0.012439965,0.032498825,-0.33168152,-0.16088903,0.07772874,0.33070675,0.03363548,-0.074966185,0.19706379,0.10886506,-0.008631165,0.010519835,0.02402734,0.09026906,-0.36061853,0.058078285,-0.13486014,-0.16963513,-0.019939898
ESZP041-14,0.006950129,0.011405118,0.0112975575,-0.013502624,-0.0004062783,-0.011885937,-0.012784505,0.0048809852,0.009113476,-0.009142276,0.007880529,-0.015261387,0.013610126,-0.0015258938,-0.003125731,0.006922696,0.0129465815,0.011326091,0.00803709,0.011586597,-0.009502184,-0.00946819,-0.0012921281,-0.013775051,0.0068261437,-0.015385864,0.0012548584,0.008744501,0.011401873,-0.004084887,-0.015576456,0.0011080988,-0.0039635636,-0.008461336,-0.014377449,-0.0036823377,-0.006664181,-0.015482696,0.005412629,-0.008663183,0.014547281,0.0009267125,-0.008387603,-0.0064396653,-0.010283826,-0.0007878952,-0.012965791,0.0006103106,-0.013739368,-0.009615699,-0.013499886,-0.0063861553,0.008077938,0.01117374,-0.006977545,-0.010213906,0.0106985085,-0.00496988,-0.010808617,-0.014836727,-0.0077565406,-0.00081123225,-0.014455946,-0.0053504147
ESTS016-17,-0.13913402,0.024646658,0.41824552,-0.14422986,0.041697074,0.0017546653,0.12156723,-0.13460927,0.094903655,0.18159664,0.18894194,0.23809116,0.21709023,-0.25764495,-0.45057398,-0.12333014,0.1406106,0.017973296,0.12278649,0.34099156,-0.39904863,0.16985472,0.49473754,-0.63732934,-0.051874764,0.26505393,0.0022880982,0.021665672,0.1905043,0.064041406,0.14729878,0.458362,-0.6395678,0.08466081,-0.029146599,-0.07741752,-0.058677994,0.3140146,0.2714889,0.06933464,0.40415886,0.06372624,-0.043615542,0.04141688,0.15747377,-0.091785975,0.25919202,-0.4232494,-0.3259889,0.27875677,0.30168685,-0.042356852,-0.16255988,0.1395718,-0.030269064,-0.06945136,0.21947126,-0.15291971,0.16975386,-0.4970592,0.10034446,-0.3470243,0.061202876,0.035986055
ESZS019-17,-0.13260426,0.06626061,0.19518015,0.022627229,0.035699848,-0.08289729,0.16053994,-0.071792826,0.08084293,0.011946829,0.13742544,0.17738003,0.15683371,-0.23295692,-0.17686898,-0.0460303,-0.030499505,0.09601526,0.28124788,0.24618746,-0.2313513,0.055983502,0.22886369,-0.36319244,-0.11979808,0.23303773,-0.059345897,0.0062450897,0.18629749,0.11054589,0.1559675,0.24394141,-0.46207994,-0.014342604,0.02473882,-0.012471462,-0.08723366,0.27204624,0.20085269,0.0071910433,0.3544408,0.05760001,0.036142092,0.029709179,0.083046466,-0.034788705,0.1403281,-0.33403626,-0.22529642,0.122195005,0.27011725,-0.024495415,-0.038841005,0.1693294,0.018699259,-0.0013246953,0.048428338,-0.05792705,0.12494282,-0.28174257,0.07150573,-0.1742115,-0.052762937,0.05464672
ESTS012-17,-0.1339917,-0.061760955,0.6378837,-0.27332887,0.22230221,0.208095,-0.1170181,-0.5135597,0.31975257,0.51053464,0.055265855,0.5605694,0.31345883,-0.69266367,-0.81202966,-0.26235124,0.4078493,-0.13014726,0.40846518,0.95329624,-0.9798046,0.3553187,0.8792445,-1.305648,-0.2908633,0.6227607,0.11467845,-0.2592189,0.32527086,0.2895908,0.2608327,0.8556309,-1.2998803,0.36316782,-0.042928036,-0.11935175,-0.17141709,0.56261003,0.28260738,0.17317967,0.7369895,-0.1218604,0.045460664,0.45056877,0.3694357,-0.19179206,0.36249712,-0.86514145,-0.7812125,0.26419708,0.7352749,-0.26670426,-0.39878625,0.14988002,-0.36636078,0.043017413,0.21999337,-0.22366197,0.5362238,-0.9551308,-0.0013871395,-0.5421865,-0.058804538,-0.07479959
ESTS002-17,-0.14537153,0.20454848,0.28569177,0.068930104,0.039134696,-0.14395125,0.12644462,0.13535988,0.20964967,-0.020473167,0.20517421,0.21284409,0.28617844,-0.09295535,-0.36443877,0.010772715,0.016650124,0.14757487,0.30691198,0.14289261,-0.18438801,0.1823297,0.2788884,-0.30589476,-0.09588577,0.25034988,-0.002845183,0.16490702,0.2835485,0.24544044,0.15713121,0.2907236,-0.541977,-0.019967875,-0.007782724,-0.04383102,0.0020906194,0.33050454,0.24252436,-0.028767271,0.39876312,0.058376707,0.010053725,-0.13287479,0.17452663,0.055220135,0.11622003,-0.35341498,-0.1497567,0.16581191,0.26338136,-0.049179077,-0.06600344,0.15797743,0.06779854,-0.15438934,-0.10523508,-0.08846994,-0.01701267,-0.31330746,0.13133751,-0.1570103,-0.10946148,0.016283467
ESZS001-17,-0.0006223433,-0.005137123,-0.0067930836,-0.013536351,0.004332805,-0.0020582117,0.0072458107,0.010168135,0.0104184,0.013757743,0.001719214,0.005138578,0.008309597,-0.012114352,0.006383607,0.0099275485,0.004270602,0.00723093,0.008747643,-0.0031544827,0.00047793798,-0.00617378,0.004702594,0.0036003124,-0.0014307909,-0.007095903,-0.00088205375,0.008485654,0.012850277,-0.0046012234,0.00644828,0.013763005,-0.0075378213,0.0028441325,0.00785497,-0.009986965,-0.01158822,0.0015439931,0.0057957266,-0.014948837,-0.004643284,0.01187999,-0.012115115,-0.012009913,-0.0043234713,-0.014248485,-0.014373157,0.012174623,0.005871054,0.010409975,-0.011473289,0.0071244594,0.0116475355,0.009793289,0.014468964,0.010653164,0.010255424,0.010871723,0.003809508,-0.010131491,-0.011118691,-0.015448442,0.0014540814,-0.013079371
ESZS002-17,-0.046438865,0.022893416,0.027338112,-0.0048482507,0.009933343,-0.05207034,0.044890527,-0.015326654,0.0545698,-0.0042315866,0.023008564,0.049339876,0.0920596,-0.08945937,-0.04708372,0.029724069,-0.023340378,0.038313165,0.13686803,0.10161748,-0.073249474,0.030314889,0.045413803,-0.11046964,-0.04438753,0.11498178,-0.034192044,0.014618344,0.11365341,0.028679585,0.06863796,0.07883684,-0.17382875,-0.0098165525,-0.0072135944,0.011956021,-0.043495234,0.116539314,0.06426043,0.018395714,0.13314769,0.0042711007,0.031388786,-0.0056681638,0.026283406,-0.00079432764,0.06201914,-0.1240889,-0.07085503,0.006424864,0.10716168,-0.007709467,0.0168326,0.059150353,-0.0013229497,-0.013739009,-0.016229166,0.005799522,0.0356796,-0.10902306,0.015258706,-0.034547046,-0.02241446,0.05042136
ESAE006-23,-0.061262317,0.038226463,0.04942022,0.049242005,0.002886578,-0.048106443,0.07640584,-0.009253461,0.02784851,-0.02105008,0.058059003,0.0563936,0.08771922,-0.09614001,-0.044470698,0.013320991,-0.026503667,0.049936384,0.14405036,0.12600043,-0.07697407,0.052271444,0.059268408,-0.13286604,-0.058455907,0.087872,-0.03640195,-0.00018821761,0.07935563,0.045927063,0.09818593,0.08228053,-0.1838326,-0.022557972,0.000677147,0.010863254,-0.036767405,0.12515675,0.077135496,0.00057644106,0.1651356,0.017876994,0.033176072,0.0013291162,0.020810159,-0.010199033,0.048324373,-0.1358454,-0.06362566,0.02270372,0.108593374,-0.0084987655,-0.0030787014,0.08694443,0.021866018,-0.025212597,-0.019333446,-0.0042697634,0.019557532,-0.11241111,0.05741275,-0.0442841,-0.05883049,0.039272003
ESHR027-21,-0.05113899,0.042661317,0.04000611,0.008763234,-0.013215993,-0.028319035,0.058828905,0.013797694,0.022860035,-0.015110471,0.05008727,0.03983168,0.06177773,-0.050207466,-0.027044697,-0.006886279,-0.021389615,0.041209936,0.10820593,0.09042273,-0.05514269,0.031234391,0.07305551,-0.1212832,-0.023934513,0.086402,-0.0264845,0.027684791,0.06293034,0.018315572,0.0469262,0.068877384,-0.12885946,-0.009361688,0.0011922328,0.015037559,-0.035927877,0.09791733,0.06288034,0.014026645,0.0918669,0.018308243,0.022729186,0.0038812174,0.0034769352,0.015397252,0.031477828,-0.10398866,-0.04573902,0.034956783,0.09087244,-0.0032326183,-0.010011954,0.060082827,0.0053788656,-0.019081455,-0.009792588,-0.023623195,0.017684847,-0.084651046,0.03087418,-0.037679214,-0.04183105,0.031251725
MCBM013-23,-0.111773536,0.09078696,0.10525736,0.06882479,0.0008652377,-0.099058956,0.14208578,-0.019200355,0.026335761,-0.016481197,0.10217327,0.12395425,0.16505879,-0.13332918,-0.090433374,-0.0016653216,-0.05811666,0.109854616,0.20831989,0.17447251,-0.14339755,0.06362072,0.14638503,-0.23733224,-0.07137252,0.16318515,-0.094055854,0.03138649,0.17134422,0.07354926,0.105985485,0.16722247,-0.3186022,-0.052202374,0.0028546269,0.03822582,-0.049411863,0.18288894,0.14487556,0.0005218459,0.23826824,0.050242558,0.05263937,0.004449236,0.027491048,-0.013839613,0.06860869,-0.25487262,-0.13287863,0.06720056,0.19659077,0.0059747566,0.0036619916,0.12218135,0.06026294,-0.014300731,-0.003538575,-0.009072553,0.06725527,-0.18739885,0.060317572,-0.08421703,-0.06948162,0.044013206
MCTB001-17,-0.0963232,0.14509903,0.21431476,0.025908193,-0.026674107,-0.12187033,0.12770912,0.010797106,0.028328774,-0.028244162,0.17606138,0.17737252,0.20658837,-0.21568236,-0.15133868,-0.01006172,-0.018591894,0.14649078,0.26171818,0.25041544,-0.19736132,0.073930934,0.23298441,-0.3557028,-0.118226774,0.25075236,-0.050722506,0.09072331,0.22465034,0.07491464,0.15854539,0.23032813,-0.41878006,-0.04180526,-0.01620321,0.015505455,-0.027253514,0.28705332,0.20629299,0.019981889,0.3733321,0.047538295,0.025415473,0.017042398,0.118962206,-0.010151681,0.07857419,-0.38272524,-0.20077497,0.072605856,0.28471282,-0.006785277,-0.06339322,0.20005554,0.042317603,-0.0631988,0.007447291,-0.07796833,0.12649873,-0.25528982,0.0610251,-0.17400311,-0.075361915,0.013797609
MCBM001-23,-0.15781006,0.3280371,0.2389855,-0.023335075,-0.008036086,-0.12176278,0.07582735,0.085849315,0.00638245,-0.064781785,0.27916932,0.2951186,0.32778123,-0.27559912,-0.19409542,-0.024490576,0.048693024,0.23124492,0.26643598,0.39833787,-0.20284995,-0.057052195,0.35948122,-0.44307905,-0.2626379,0.27938145,-0.10353525,0.15206493,0.35939857,0.08200838,0.13754772,0.36209255,-0.5151241,-0.047834154,0.07791253,0.0076044197,0.008471235,0.4158662,0.27856988,0.10398357,0.46270552,-0.022504114,0.018669473,0.22983475,0.19694601,0.0025771481,0.074133016,-0.5255239,-0.20668483,0.055198256,0.28646567,0.07891297,-0.05858971,0.37157768,0.0461589,-0.07619198,-0.10394591,-0.03635529,0.20993926,-0.3274896,0.05013372,-0.10264317,-0.084494494,0.06406814
MCTD022-18,-0.10969885,0.09644247,0.14242749,0.05790791,-0.022469979,-0.1280777,0.20562647,-0.045623433,0.074020624,0.014224069,0.17487362,0.24536246,0.26263124,-0.18872644,-0.10171638,0.08393852,-0.045403313,0.12432735,0.33053464,0.27257383,-0.25023434,0.09849847,0.16944484,-0.39564547,-0.061082006,0.25454304,-0.09994694,0.06043322,0.25788084,0.054614566,0.15545475,0.2805558,-0.5356276,-0.03777836,0.0124432575,0.053202603,-0.042861197,0.31065986,0.20564257,-0.023404676,0.41174582,0.12954909,0.10143498,-0.009476255,0.060936015,0.036274474,0.13519847,-0.37149203,-0.22299553,0.09398823,0.2946015,0.00543079,-0.011868189,0.17086735,0.08856652,-0.026890188,-0.01245289,-0.013144915,0.07708532,-0.2540003,0.06394695,-0.2115556,-0.13215524,0.062306143
MCCC001-23,-0.071057945,-0.19256198,-0.023995258,-0.10864038,0.20850709,-0.23558246,0.1832393,-0.1611348,0.11833097,0.1771503,-0.002159803,0.27475417,0.27098992,-0.28722778,-0.07934422,0.2309735,0.022661358,0.42804787,0.48529214,0.59123063,-0.1076158,0.042983327,0.26892442,-0.2036697,-0.032912616,0.15947218,-0.052967623,-0.03977876,0.3658226,0.03795717,0.4109726,0.38844034,-0.51348346,0.09866093,-0.10700174,0.08527042,0.021025086,0.2008618,0.50996536,0.20691021,0.55488133,-0.009525802,0.22727509,0.061018467,-0.18877421,0.1632348,0.35304144,-0.24996279,-0.11289207,-0.00685666,0.05573468,-0.19094223,0.1343457,0.18414073,-0.10836693,-0.0005392284,0.115016654,0.16444986,0.36819258,-0.5096388,0.2387856,-0.18128903,-0.1980365,0.2597485
MCCC002-23,-0.056040175,-0.3116564,-0.050751187,-0.16910538,0.31010318,-0.31630594,0.26383,-0.22054954,0.15302004,0.23488641,-0.028964395,0.38069013,0.38783893,-0.43697432,-0.09473177,0.34556484,0.015565966,0.5933052,0.6873971,0.8666962,-0.17038518,0.037546605,0.35092658,-0.30045944,-0.05592432,0.20971368,-0.060278866,-0.050905105,0.52803683,0.046177104,0.58108747,0.5645821,-0.7313833,0.13243383,-0.12967154,0.11185866,-0.023128185,0.29097044,0.72449505,0.30507186,0.81184393,-0.008170183,0.35584795,0.08576499,-0.26032206,0.22366814,0.53648746,-0.39253128,-0.166085,0.03070657,0.068666555,-0.25115532,0.20651388,0.22629145,-0.15564983,-0.013634351,0.22099154,0.27406248,0.5805792,-0.7540678,0.29217133,-0.2650144,-0.2285151,0.39544615
MCCC003-23,-0.10477578,-0.43153465,-0.016386645,-0.27299288,0.4487504,-0.46569613,0.25752574,-0.27324054,0.19803281,0.31741962,0.06903989,0.5416156,0.5763215,-0.5536728,-0.1892588,0.5426597,0.14267956,0.8175797,0.9267178,1.1256055,-0.15648863,0.113884695,0.56488675,-0.5074531,-0.059761055,0.31696597,-0.09240318,-0.12508288,0.7152401,0.12716316,0.75976616,0.7789446,-1.030474,0.25447685,-0.21565846,0.15151206,0.046050258,0.33528534,1.0302868,0.38779202,1.1015419,0.027726617,0.44643623,0.1546365,-0.3898862,0.31816941,0.7171566,-0.5746115,-0.24823567,-0.018765986,0.20010172,-0.38257173,0.25079632,0.33793274,-0.19716951,0.0030904335,0.19443016,0.33786422,0.70474875,-1.0267524,0.45182756,-0.3332034,-0.3291846,0.5486621
MCZA035-17,-0.08247695,0.026015427,0.03987039,0.003000308,0.038765855,-0.07142384,0.10244404,-0.029056346,0.03195631,0.0065134363,0.04939066,0.10399688,0.14126521,-0.14615834,-0.04982844,0.04122069,-0.045705676,0.10219333,0.20295915,0.20973386,-0.108791456,0.032624252,0.12414372,-0.18776497,-0.06963224,0.13536893,-0.056566145,0.028527442,0.1629521,0.059645846,0.11800275,0.17685315,-0.27639794,-0.011206351,-0.019603986,0.01771252,-0.053685926,0.13654818,0.1627328,0.048093192,0.24774103,0.029116366,0.07590041,0.0014128024,0.011525997,0.021629864,0.10391019,-0.20208612,-0.095469214,0.02890876,0.13872176,-0.0105087375,0.019837802,0.1107604,0.0056031602,0.0010554583,0.00026467396,-0.007648009,0.08733792,-0.18435705,0.064567134,-0.095579684,-0.068508595,0.07416687
ESZR003-21,-0.008048296,-0.014122449,-0.009447981,-0.00028981455,-0.0007448327,-0.0031710435,-0.0038878527,0.0015053041,-0.0013873838,-0.00613497,-0.005099248,-0.009698896,0.013433093,0.012938002,-0.0037388578,0.011690006,-0.0046851113,0.004917005,-0.0049881265,-0.0013195891,-0.007090017,-0.0008536428,-0.011458423,-0.015579194,-0.008773863,0.013938131,0.012185024,0.0014374405,0.00862438,-0.01393359,-0.0038814992,-0.010968262,0.013309434,-0.011297043,0.014078181,0.014134655,0.011015197,-0.004245013,0.013021059,-0.012103867,-0.003909651,0.0047673266,-0.006622957,-0.005735675,0.0015702434,0.010643916,-0.00416887,0.008218484,-9.832345e-05,0.0025461484,0.011547221,-0.014129354,-0.001081055,-0.0075985733,0.009665204,0.0020598602,-0.0025557112,0.007823059,0.0043612756,-0.004913494,0.0030292124,0.005886063,0.009215869,-0.012309762
LHZ0002-19,-0.0051404685,-0.008335426,-0.0059476867,0.005193319,0.0121665895,-0.004300425,0.0024569724,0.010112215,0.01057199,0.0072307065,-0.0038180463,-0.00024433434,0.0023129433,-0.013294544,-0.008961696,-0.00412165,0.002019681,0.008262154,-0.015529957,-0.0053584594,0.0020634662,0.009008208,0.0074068382,-0.010265939,-0.010002127,0.006741941,-0.011189515,0.004310148,0.012637794,0.010802245,0.011792524,0.014835479,0.0018795356,-0.014841067,0.008405399,0.0056886505,-0.0067918226,0.0075349323,-0.010111505,-0.0053216256,-0.01374048,0.007613126,0.0032242667,0.013624568,-0.00035485066,0.0135966,0.009280417,-0.013912015,0.007858532,0.0051804706,-0.00045421906,0.0045498703,-0.003963357,0.0061745755,0.00037300214,0.007976685,-0.014561726,0.0021937024,0.014623335,0.010395054,-0.013316818,-0.013623662,0.01184709,-0.005206788
MCZB001-13,-0.044197757,0.03833171,0.029645886,0.02490252,0.009816743,-0.032046836,0.036884204,-0.011029472,0.008291581,0.007925054,0.03328474,0.034927506,0.07916745,-0.063151695,-0.041699138,0.0052470886,-0.0030094092,0.055460457,0.0904696,0.08707334,-0.07877427,0.021951726,0.052759834,-0.113563135,-0.052503407,0.07130459,-0.026400112,0.016901635,0.106895745,0.04810606,0.08098077,0.07355588,-0.15492359,-0.02006693,-0.004408908,0.010917595,-0.05710782,0.08850793,0.06581539,0.0055324747,0.11554384,0.0053883493,0.024604267,0.020949485,0.0058526546,-0.007923794,0.054696117,-0.101699635,-0.056018163,0.019125314,0.092821375,-0.0076972544,0.0044662943,0.052483138,0.0028574304,-0.04025971,0.008981431,-0.010605251,0.034739662,-0.07742261,0.015012058,-0.024570089,-0.045286097,0.028757012
ESZT001-17,0.0033051167,0.011135731,0.012861481,0.015157808,0.006593019,0.0017998945,0.0127128605,-0.004964767,-0.002250133,-0.010900781,-0.013654513,0.008448364,0.0044789948,-0.00765164,0.0005603172,0.002683647,-0.011498362,0.011709379,0.010106623,-0.011177754,0.012410171,0.011273449,0.009349408,0.014307892,0.01420459,0.014821364,0.0034114607,0.0076676738,-0.0108250305,-0.008386806,0.009713957,0.0030361228,-0.0116958935,0.015380748,-0.01197388,0.004769452,-0.0012694839,-0.00859924,-0.014971903,-0.013017062,-0.013353372,-0.0094290525,0.0073770825,0.00060237385,0.014494041,-0.012781395,0.002627559,0.00044219755,0.012512835,0.002588816,-0.010921476,-0.0073500946,-0.01193464,-0.007961076,-0.0022861697,-0.0068265013,-0.0052164495,-0.0062517654,-0.01070042,-0.0135901775,-0.004097484,-0.0019134916,0.0046126302,0.01063285
MCCC004-23,-0.11351612,-0.46589717,-0.01147483,-0.28649452,0.42952922,-0.48460418,0.28174505,-0.27962604,0.21603905,0.29031006,0.04469818,0.5148576,0.5671011,-0.5848871,-0.17449614,0.5528276,0.15466408,0.8119705,0.9693562,1.1485283,-0.17717238,0.12457685,0.591983,-0.51586205,-0.041775562,0.31829345,-0.10392744,-0.12942304,0.7172593,0.16710545,0.8068069,0.7880922,-1.0593389,0.28313673,-0.21356511,0.15270318,0.050542217,0.35812783,1.0559949,0.44699767,1.1462785,0.004240454,0.4852334,0.15504354,-0.38694307,0.30472714,0.7517134,-0.561237,-0.24872929,-0.03777026,0.20584962,-0.4021798,0.24002787,0.35202,-0.21171421,0.028608648,0.22256488,0.38201025,0.72470933,-1.0435038,0.46796945,-0.35285082,-0.36976057,0.5897273
MCCC005-23,-0.13620226,-0.47280702,0.01671112,-0.29637858,0.4854623,-0.5470966,0.30635545,-0.3081671,0.25708166,0.35793865,0.04237024,0.592144,0.6686951,-0.6664549,-0.19700874,0.6225661,0.12638131,0.9195287,1.1136014,1.2869238,-0.20901512,0.10685519,0.68109894,-0.5991676,-0.0720557,0.3551866,-0.14765821,-0.17654102,0.79694355,0.1874395,0.8733241,0.8855405,-1.2302638,0.2993821,-0.2236163,0.18506432,0.05954667,0.4556896,1.178922,0.45929104,1.324474,0.053831644,0.5400485,0.18749341,-0.43370572,0.36137286,0.8319959,-0.6772449,-0.2896032,0.0002342743,0.27665263,-0.41177636,0.264914,0.3815732,-0.18844707,0.005369644,0.21160477,0.4087203,0.83561206,-1.1676754,0.5153407,-0.416297,-0.42783812,0.655393
BHS0001-23,0.004629681,0.0012258757,-0.008624518,0.00012165122,0.0021492317,-0.0033811014,-0.005961895,-0.010316504,-0.013312502,0.011470823,0.01249682,-0.011853842,-0.0067055114,0.0014486536,-0.0006122831,0.014380662,-0.014921615,0.0010457039,0.005314421,0.005923817,0.0027011093,0.00080119073,-0.009671271,0.009560423,-0.011569956,-0.0014415402,0.008275915,-0.0023204982,-0.009144643,0.0074929725,0.0022256002,0.013591295,-0.008537799,-0.014413191,-0.001776481,0.0049164835,0.011088079,-0.0019151643,-0.01291905,-0.014609311,0.0033180602,0.0047671776,0.006522555,-0.009821733,-0.011955457,0.003716983,-0.010606019,-0.0041862465,0.00026055425,-0.00833199,-0.001451619,0.0046173483,0.010790443,-0.004045794,-0.015298849,-0.000783341,-0.009851169,-0.012804531,-0.008590402,-0.0012376104,0.0084076915,-0.012456942,0.001376301,0.0017932281
ESHT011-21,-0.10723946,0.08912429,0.1321342,0.10913638,-0.06413604,-0.10528091,0.16836187,0.047174066,0.008259369,-0.034485072,0.13012643,0.12568058,0.15380529,-0.11421171,-0.10611145,-0.003369856,-0.055926915,0.09673151,0.16925465,0.16451924,-0.10986584,0.09133716,0.16162644,-0.25875017,-0.015833998,0.13244909,-0.08815549,0.07363482,0.12944314,0.067721374,0.1325304,0.1497125,-0.27846944,-0.0791661,0.0012777542,0.04112876,-0.023187533,0.15151028,0.16340065,-0.020626979,0.22630154,0.08142521,0.014927545,-0.0045045195,0.020757107,-0.0033663127,0.045548234,-0.20722848,-0.12864104,0.09707528,0.1480702,0.034649964,-0.0032238287,0.14197133,0.08301636,-0.020775374,0.02253633,-0.05328196,0.0487379,-0.17600189,0.067975454,-0.10280379,-0.082143664,0.010420387
NHT3067-15,-0.12910694,0.052108042,-0.027030597,0.19878325,0.08802842,0.0399511,0.24544622,0.044705093,-0.045974284,-0.093519695,-0.040936906,0.010886723,0.32844028,-0.23835172,-0.014868972,-0.057959013,-0.0015821641,-0.009748019,0.16089441,0.3106826,-0.4521263,0.09722365,-0.020366497,-0.3262029,-0.16022229,0.20732906,0.09615624,0.14691041,0.34296343,0.31437045,0.18044133,0.22649975,-0.6666852,-0.19505604,-0.0431309,-0.0029913816,-0.3032133,0.29144594,0.2876104,0.030084882,0.42727304,-0.107348606,0.33066404,0.06809553,0.14636794,-0.054173157,0.10575967,-0.44347998,-0.09799619,0.027884537,0.48560488,-0.16437328,-0.061889,0.20590581,0.154744,-0.34316576,0.09503752,0.061133403,0.067370854,-0.2692823,-0.06378271,-0.06102253,-0.14366789,-0.031557113
ESEC001-24,-0.05527497,0.049213786,0.039689567,0.0025214297,0.025919374,-0.054024674,0.055125333,-0.02441996,0.0385387,0.0021385432,0.0635669,0.07604062,0.09723332,-0.10690088,-0.047318213,0.029247344,-0.023737235,0.0694171,0.17088059,0.119520396,-0.0826698,0.036555346,0.09078019,-0.15014805,-0.059590515,0.12920739,-0.073241115,0.009765355,0.12915543,0.047306687,0.09371035,0.11269589,-0.19911526,-0.01171991,0.007089279,0.008419262,-0.024348417,0.14327602,0.101219274,0.0028270537,0.18528156,0.043701094,0.041724596,0.014519474,0.022160787,0.0015345152,0.08381777,-0.19068268,-0.07597539,0.036606688,0.16471675,-0.017564578,0.0031503432,0.10094858,0.02030122,-0.0027579553,-0.027693918,-0.009069556,0.056414574,-0.13831322,0.04512238,-0.06438542,-0.04012267,0.05238521
ESHR029-21,0.015341928,-0.01487186,-0.0039103217,-0.005371662,-0.0062618703,-0.008368073,0.01327209,0.011424266,-0.014682589,0.0046600625,0.0095532555,0.0077053998,-0.015013719,-0.0153731555,-0.0050031673,-0.009476474,0.010516966,0.0073640607,5.3139403e-05,-0.0053048637,0.0111792255,0.0055293087,-0.0028433707,-0.007302141,0.006767802,-0.0056331586,-0.003985433,0.006120434,0.009875465,-0.007920776,0.001260668,-0.0062362794,0.0092514455,0.0036521778,0.009122513,-0.002203038,-0.004506616,0.013116343,-0.006080931,0.0066937506,0.0029449835,0.01144699,-0.010355191,0.010038458,-0.012711663,0.0026650038,0.0046749227,-0.015362931,-0.0020975135,0.0057476144,7.21626e-05,-0.012287322,-0.012720859,-0.0071123634,0.0026640072,0.008793479,-0.013461597,0.005567262,-0.004640037,0.0025763921,0.01229112,0.012715323,-0.011541925,0.009502336
MCZA001-13,0.005095776,0.0060138125,-0.006813014,0.0064321775,-0.002428228,0.010321273,0.0034411382,-0.007455198,-0.0046719667,0.0060918666,-0.011730999,-0.0004519876,-0.010856342,-0.0030818284,-0.0071910154,-0.011744065,-0.0008967854,-0.010951672,0.006668808,-0.0091458615,0.0074008424,-0.0068695024,-0.0036112126,0.009352757,-0.0082645845,-0.0071881767,-0.0010843799,-0.011539649,0.005729802,0.0047668163,-0.014514415,0.009057935,-0.00986379,-0.0045126863,0.0025317483,-0.005207725,0.007748153,-0.0027253907,-0.010581138,0.0022730827,0.012939071,0.015184624,-0.011403954,-0.01186756,-0.011324018,0.00541961,-0.006156616,0.0024609677,-0.0034084618,0.0035654064,-0.006655507,0.005417714,0.012686811,-0.00052918494,-0.0063639507,0.0009423364,-0.008378318,0.008348549,-0.008469375,-0.010187525,-0.008617403,0.011001937,-0.012083091,0.0073441975
ESZG001-17,-0.0758934,0.088037446,0.085411124,0.04958254,0.0050453977,-0.09934522,0.10102754,-0.0116219595,0.041922577,-0.0013157688,0.10994325,0.089324415,0.122155495,-0.12051521,-0.06433656,0.020357857,-0.032565013,0.092804,0.17762741,0.1358495,-0.12507224,0.052621886,0.12615167,-0.17954892,-0.046184912,0.1421483,-0.07989552,0.063082315,0.13830864,0.06868761,0.09550289,0.15028806,-0.24567737,-0.04546332,-0.021557588,-0.006913691,-0.04644684,0.16822599,0.13029668,0.0013479224,0.20960157,0.052800115,0.04811191,-0.010251016,0.0110139465,0.00594511,0.067874566,-0.19900836,-0.09233888,0.046675432,0.1717827,-0.0024598374,-0.0134473145,0.11510231,0.015087003,-0.025436306,0.006695163,-0.03273839,0.052405607,-0.14013536,0.053639445,-0.07826221,-0.07573278,0.023297613
MCZB002-13,-0.09168208,0.07459543,0.08565943,0.031242121,0.0084222695,-0.10974593,0.14220567,-0.024958888,0.03632113,-0.0044468814,0.10289515,0.12843356,0.16358268,-0.15484397,-0.06581136,0.0134628955,-0.0620366,0.10549137,0.22648121,0.18918438,-0.15667789,0.056476448,0.13404886,-0.22900851,-0.071016595,0.18068837,-0.084287606,0.050652105,0.19355343,0.06335199,0.12509702,0.17978665,-0.3080865,-0.032794442,-0.027221669,0.026748206,-0.07118789,0.18195678,0.15388247,0.02865816,0.25796714,0.033984207,0.05748793,-0.014992042,0.038149294,-0.0069656395,0.080363475,-0.25849035,-0.11212849,0.033929747,0.18202853,0.012158722,-0.005979592,0.15625244,0.038658135,-0.036445845,-0.0017882443,-0.0075619584,0.059045747,-0.20248927,0.047194622,-0.09604568,-0.05908982,0.06989224
ESZC001-21,-0.23138537,0.09208297,-0.09585136,-0.29067066,0.097345404,-0.28303704,0.29832762,-0.118197314,-0.15563881,0.054128624,0.31530023,0.26805273,0.067874186,-0.20544885,0.10229297,0.35287732,-0.29213098,0.16222611,0.892323,0.51955944,-0.53786093,-0.0402735,0.4686356,-0.1656584,-0.16776563,0.7668255,-0.509766,-0.23670954,0.54592896,0.36234513,-0.034317777,0.50684804,-0.84433746,-0.2545288,-0.3996187,0.23380502,-0.26613578,0.58063847,0.51512367,0.3706192,0.5819256,0.39429125,0.4709182,-0.4495755,-0.065262124,-0.029810484,0.2744745,-0.87728816,-0.15407911,-0.01873299,0.7107802,-0.30719706,-0.0758721,0.39009,0.16381852,0.037928905,-0.21183744,-0.30575308,0.1800893,-0.440188,0.24518263,-0.5556207,-0.0165705,0.010993267
ESTA005-17,-0.34123877,0.14141348,0.045447566,0.31905213,0.0408717,-0.26476538,0.1185185,-0.056522287,0.14190222,-0.19198091,0.33163828,0.3796177,0.31031454,-0.27801222,0.09258651,-0.034249663,-0.15774462,0.26619345,0.51945776,0.12965311,-0.12284757,-0.007920445,0.20160258,-0.24534208,-0.18614994,0.25440255,-0.18613802,0.17045186,0.32804266,0.036108933,0.16401061,0.1458127,-0.6737175,-0.1965194,0.17558396,0.022461472,-0.11503461,0.25268233,0.2803634,0.21132275,0.36980566,0.04925654,0.11807612,0.24213514,-0.01987665,-0.016282517,0.13823922,-0.49306643,-0.09148862,0.14045899,0.23518445,0.17442784,0.17281252,0.3638589,0.11228219,-0.0957763,-0.03526703,0.027413964,0.2175114,-0.30161828,0.14281519,-0.29752067,-0.13935848,0.18392608
ESTU024-17,-0.011015918,-0.0124554075,0.010611283,0.009916641,-0.0015897267,0.008545535,-0.0136136245,0.0049462616,-0.0045246687,0.008448934,-0.0005603563,-0.008575011,-0.01260964,0.00812353,0.011785839,-0.0015163142,-0.008472927,0.0066275,0.0066748615,0.00059248507,-0.0106752105,-0.011107141,-0.013887655,-0.012060335,0.011308428,-0.005884882,-0.012915252,-0.01168536,-0.0021028556,0.013481943,0.00459346,0.002687782,-0.0063302703,-0.01183369,0.0012552328,-0.014146218,-0.009521149,0.012351466,0.0023210682,-0.012099991,-0.0058930963,-0.0034247376,-0.014123676,-0.005647309,-0.011195542,0.0025902707,0.00016420893,-0.008500256,0.008010913,-0.012074804,0.0028391406,0.012856387,0.005374087,0.009970119,-0.0025907606,-0.0056747347,-0.0042682216,-0.01314549,-0.00866358,-0.008243961,0.00944395,-0.0013754964,-0.012154201,0.009747166
ESZU027-17,0.010154821,0.007289311,0.0076408554,0.0058044605,0.0058438405,-0.008621991,0.0068537835,0.014010513,-0.01153446,0.0048733316,0.014079651,-0.007142056,0.013526376,-0.010684559,0.011145506,-0.009381572,-0.013909642,0.008726744,-0.011005733,-0.010108218,0.0077648647,-0.014372025,-0.007996066,0.008722443,0.002189897,-0.0005951114,0.01027598,-0.015038377,0.005225925,-0.007261075,-0.0029878598,-0.0024803393,0.012317697,0.008714328,-0.013713192,0.001016032,-0.010238599,0.014038052,0.0077628847,-0.015238361,0.0013664551,-0.0002133958,0.011978477,0.005555708,-0.012506533,0.005546963,-0.0015619397,0.00578703,0.014639802,-0.01272583,0.0016961955,0.00278176,0.007113982,-0.0032645892,-0.014446372,-0.012879297,-0.0041488186,0.012760444,-0.0061170626,0.013203813,-0.011300936,0.012791812,-0.0118121635,-0.00087633356
ESTB029-17,-0.6761762,0.3504541,0.23424122,-0.094631955,0.042605888,-0.58228916,0.37260652,-0.29724884,-0.08605028,-0.0060853795,0.23687203,0.11542214,0.20445952,-0.3602851,-0.0059375,0.065301135,-0.45322952,0.38572,0.71483296,0.23416126,-0.11830201,0.60665745,-0.044850454,-1.0610437,0.075878724,0.744559,0.10188955,0.22112492,1.1862035,0.2840871,0.3676018,0.2593844,-0.9222213,-0.2496277,-0.4227552,0.8275081,-0.06729832,0.41334522,1.0560162,-0.52400273,1.4353428,-0.06395768,0.008861843,0.14292847,0.08753374,-0.008152199,0.20205447,-1.4283417,-0.5478758,0.120208316,1.2714013,0.8051887,0.11753581,0.3525676,-0.45515153,0.2185187,-0.23842426,0.5514304,0.49524823,-0.69306284,-0.15312314,-0.43451536,0.21630311,0.13715422
ESZC018-17,-0.13942912,0.112684704,0.15924072,0.056826126,-0.014143396,-0.16845514,0.21477647,-0.0065129423,0.037963264,0.021650918,0.10692824,0.16463843,0.23279132,-0.2242458,-0.1328497,0.049479473,-0.09817272,0.16787687,0.3393976,0.2976813,-0.20306082,0.08473353,0.20239423,-0.36261985,-0.08890176,0.28275394,-0.11081711,0.0368909,0.28447738,0.101003654,0.22695476,0.2570012,-0.5137221,-0.082587235,-0.008608274,0.048486866,-0.14193694,0.29339585,0.18284455,0.055250652,0.41217357,0.06009668,0.07550796,-0.015674563,0.04323672,-0.02201228,0.12776896,-0.43496266,-0.20361899,0.10207576,0.29543966,0.016318183,0.0048496593,0.25976384,0.052123394,-0.04891018,-0.022442054,-0.06789678,0.07754421,-0.27978554,0.09425622,-0.189934,-0.11791719,0.069497585
ESTE037-17,-0.063001454,0.110664524,0.1661189,0.12229863,-0.028142165,-0.050120816,0.18353124,0.0013099476,0.01936605,-0.07324535,0.02937616,0.12256597,0.17923166,-0.2376105,-0.13827068,0.030617477,-0.058795203,0.06391649,0.3529565,0.21455066,-0.18080798,0.0857474,0.09300112,-0.25234073,-0.13271523,0.1817232,-0.014508751,-0.033920493,0.23780444,0.13836323,0.25673354,0.24258271,-0.41859606,-0.10933784,-0.009481293,0.0040505477,-0.11944933,0.21378915,0.2200737,0.02558261,0.28041878,0.0007274307,0.106044516,-0.025790263,0.06850069,-0.07916514,0.062966056,-0.3344866,-0.19696037,0.032225117,0.26091975,-0.0064789695,0.005598938,0.16387367,-0.0030887008,-0.08177779,-0.097424954,-0.028330917,0.08409597,-0.22961079,0.078017965,-0.11033875,-0.1446564,0.14714839
ESZE075-17,-0.0016222537,0.12852825,0.27922982,0.05841245,0.18455407,-0.293241,0.035915244,0.003998792,0.22960584,0.0770881,0.2856769,0.06769899,0.31927156,-0.3842107,-0.13495818,0.051758178,-0.15081355,0.043150082,0.3076567,0.50989115,-0.20242764,0.075285204,0.11576653,-0.3574721,-0.06734392,0.33262637,-0.17577827,-0.015087,0.2906495,0.080971345,0.20715205,0.044287227,-0.45570338,-0.0008306038,0.14494556,0.018585285,-0.15388586,0.41485983,0.3094602,0.054021668,0.43799636,-0.0837295,0.06842842,0.038898516,-0.1372856,-0.039794326,0.46561036,-0.43994513,-0.20336652,0.15067236,0.3957148,0.01672322,0.1290333,0.38400114,-0.03970041,0.15801136,-0.007532532,-0.19134058,0.0928025,-0.26786217,0.03587265,0.039783638,-0.15696149,0.3052368
ESZS016-17,-0.069820456,0.04249924,0.06063341,0.02192401,-0.0053741653,-0.068804756,0.08683912,-0.030650338,0.011990875,-0.015426932,0.04940373,0.10004105,0.115842134,-0.1099942,-0.05307497,0.011405242,-0.030774131,0.06273924,0.14267187,0.13603704,-0.10049661,0.04282312,0.086487636,-0.1762945,-0.05743124,0.13616608,-0.052951068,0.0047736913,0.12647256,0.05061312,0.099126995,0.114146665,-0.22190309,-0.011388837,-0.004107136,0.03327254,-0.036901694,0.12582833,0.105454914,-0.006899748,0.18093784,0.024980051,0.033360854,-0.0016448214,0.026876684,-0.0028023056,0.060939744,-0.17016117,-0.09657643,0.029615564,0.13440688,0.004560835,0.01877232,0.07910142,0.02006805,-0.006273036,-0.01910377,-0.0033338075,0.03586593,-0.13479424,0.026394296,-0.069578685,-0.029654106,0.03386454
MCBM014-23,-0.0690841,0.044947468,0.06647372,0.032477673,0.014250718,-0.08299412,0.08521495,-0.031891678,0.031611204,0.0020386626,0.09304277,0.10210313,0.12831092,-0.12518774,-0.061999112,0.0095781945,-0.04324725,0.06660329,0.1860431,0.1434056,-0.10489203,0.034480393,0.10631659,-0.19473788,-0.058758806,0.12988193,-0.053506587,0.025341772,0.140007,0.071580954,0.09650612,0.14747682,-0.26736373,-0.031907853,-0.011612676,0.03148807,-0.056853812,0.15153314,0.10932393,0.023436386,0.20795669,0.041946616,0.054982625,0.007410364,0.03272159,-0.0029969795,0.077057846,-0.199794,-0.10282255,0.020915292,0.16149399,-0.007880605,-0.006217542,0.11489338,0.025622375,-0.01972527,-0.02349521,-0.033656895,0.06602307,-0.16201822,0.048056047,-0.05637742,-0.040457428,0.060602278
MCTD024-18,-0.004604126,0.01980284,0.004536535,0.015681278,-0.0077093174,-0.009255046,0.014292069,-0.0025660815,0.0044889194,0.013321236,0.03434135,0.030620705,0.02183733,-0.022421902,-0.023541309,0.01350687,-0.014223233,0.015687143,0.04096158,0.030226197,-0.028780516,0.014013937,0.03245212,-0.061372623,-0.012778596,0.039582565,-0.01654654,0.014662236,0.028879598,0.015036233,0.038844876,0.02510372,-0.054275602,7.3302916e-05,-0.013966425,0.007551863,0.0058071897,0.039413325,0.040707678,-0.0058208047,0.04725951,0.006268723,0.014191373,-0.017451935,0.0071088057,0.010814054,0.012078452,-0.049435843,-0.0107723735,0.020425051,0.047253046,-0.014058944,-0.016134024,0.03357193,0.013728944,0.001883639,-0.0064897654,-0.019451786,0.009675796,-0.04127546,0.013964674,-0.027457884,0.0018880842,0.012236095
MCTB004-17,-0.075134166,0.4602696,0.259861,-0.09392888,0.01659751,-0.10341367,-0.059419032,0.30467328,-0.0863662,-0.08415109,0.13589978,0.4066971,0.45464075,-0.32270497,-0.07160663,0.054005258,0.04371214,0.19586097,0.37263998,0.52644515,-0.1753062,-0.20761764,0.3831588,-0.54001343,-0.38635892,0.105560265,-0.0275501,0.20829974,0.531392,-0.003286961,0.2763052,0.43427023,-0.52819365,0.07101489,0.14594832,-0.051724635,-0.029066933,0.56552655,0.3025293,0.2749111,0.63274705,-0.043178003,0.106738806,0.5317982,0.32492042,0.096037425,0.16889079,-0.58592165,-0.20363492,0.052348904,0.33001304,0.1548683,-0.017595695,0.45294482,0.115651526,-0.11007691,-0.09485285,-0.0014395004,0.25100964,-0.32721332,0.016566776,-0.21302399,-0.022676405,0.114534795
MCZB004-17,-0.18791817,0.4779358,0.27708215,-0.037462756,0.13866287,-0.030113347,-0.14107804,0.15615566,-0.05632929,-0.09336158,0.14652324,0.34839267,0.4934387,-0.36538866,-0.014784132,0.093512915,0.03939526,0.25304615,0.49126822,0.6103354,-0.17771474,-0.20886543,0.28195906,-0.54112923,-0.431178,0.038181584,0.028436163,0.19629997,0.5918615,-0.029996656,0.3412568,0.44546863,-0.6469888,0.03278281,0.14443736,-0.17947416,-0.002478657,0.4955366,0.39995816,0.34874249,0.8095303,-0.07609935,0.13026977,0.66568327,0.366952,0.020013893,0.27013883,-0.55784464,-0.21741974,0.004675984,0.35196376,0.110672124,-0.0818548,0.5488432,0.14857607,-0.16815898,-0.24512185,-0.16779034,0.30169582,-0.23207496,-0.0364141,-0.28037387,-0.024174983,0.19374003
MCBM002-23,-0.060698736,0.5409037,0.20193592,-0.18341097,-0.007478279,0.056780007,-0.22439976,0.38045856,-0.27747846,-0.12148307,-0.020782968,0.5639578,0.61350375,-0.28919375,0.058688033,0.13314344,0.12617041,0.32381004,0.5762477,0.69108295,-0.23320414,-0.36601844,0.4854509,-0.7603811,-0.3870479,-0.06796305,0.072594285,0.22319019,0.576899,-0.20638674,0.37971154,0.474681,-0.6844248,0.10928853,0.3091851,-0.063579686,0.09368862,0.6747974,0.38826036,0.42778882,0.84902656,-0.0985716,0.20643339,0.8159454,0.39038363,0.15742567,0.14161474,-0.6795402,-0.1521943,-0.0035529141,0.35543835,0.12102631,0.013807623,0.42086533,0.15020302,-0.08493553,-0.08948514,-0.03556756,0.33581367,-0.3838389,-0.08896752,-0.3405172,-0.11506696,0.20491248
MCTB006-13,-0.06159188,0.31887123,0.21915363,-0.0022884284,-0.040261064,-0.091677174,0.021794293,0.32009965,-0.095254,-0.057825826,0.11961723,0.30694574,0.4457824,-0.26270944,-0.0879822,0.053000245,-0.043575495,0.18331102,0.3456637,0.4168514,-0.14963579,-0.09397196,0.37479696,-0.45306918,-0.2744959,0.09352893,-0.07519155,0.16357729,0.40139148,0.012155009,0.2752451,0.38682005,-0.4247749,-0.0044967714,0.09060017,0.01825534,-0.038258288,0.39726073,0.3024838,0.18103695,0.52517474,0.002996641,0.13871121,0.31750414,0.1815136,0.1253954,0.08368161,-0.4736505,-0.25148723,0.059505507,0.2844905,0.10985985,-0.020723969,0.36042902,0.14396885,-0.14572544,-0.015611883,0.0013393962,0.1906765,-0.33492172,0.08003769,-0.19742171,-0.09689356,0.10104181
ESZP045-13,-0.00980711,-0.0072150156,0.0035969578,-0.0015471801,0.010530826,-0.007896116,-0.006112406,0.00041504763,0.015330082,-0.010109328,-0.0070435293,-0.007081868,-0.009529125,-0.008175442,-0.005603779,-0.0061550047,0.0068270024,0.0042488184,-0.011577874,0.010879355,-0.014215311,0.015051665,0.0038998723,0.0009947866,-0.014687866,-0.010791488,-0.0056754574,0.008822491,-0.0057499614,0.0100588,-0.015215056,-0.00889859,0.007664174,0.013347037,0.012015555,0.011629894,-0.014770435,0.004543392,-0.0036080852,0.0056072734,-0.0037625562,0.013649147,-0.0056698173,0.0112185385,-0.0059715435,-0.0060935076,-0.0063586123,-0.0064458624,0.008859364,0.0060199574,-0.014904328,-0.0012029745,-0.0008044038,-0.0028953366,0.008464614,-0.0069520716,-0.013316948,0.00863228,-0.00074135326,-0.011031035,0.0077636316,-0.015121603,0.008573148,0.002460342
ESAU011-23,-0.0108691435,0.011747211,0.007170055,0.0030733533,-0.0049850456,-0.012937885,0.01104993,-0.0032599699,-0.012649627,0.009390591,0.00054232404,-0.0043463223,0.0097263735,0.001658421,-0.008803856,0.01505057,-0.009712825,-0.013386192,0.0018882118,0.014931876,-0.004555505,0.0044267178,0.0028692298,0.0051607024,0.00073964335,0.007851452,0.0014496278,0.010710282,-0.00084446743,-0.005001895,-0.0017401241,-0.005005583,0.0074534696,0.01200287,-0.007906476,-0.013642659,0.0035443716,0.0073000845,0.0011777375,-0.0015794486,0.002236316,0.0059263967,0.015521126,0.004679527,0.011908986,-0.010516806,0.012150634,-0.004794635,-0.006903004,0.005786758,-0.00022768602,-0.013739919,-0.009199081,-0.008758634,-0.009096915,0.00024911016,-0.0031998474,0.007669328,-0.015475042,0.0066176075,-0.015372744,-0.0070205033,0.0031712689,-0.006137129
LHZ0003-19,-0.005131133,-0.0049815346,0.0039581135,0.0038522948,0.010686668,0.0049199425,0.015182132,-0.0060537905,0.009434847,-0.011899598,0.0043750424,-0.013844537,0.013133811,0.01354662,0.0008422844,-0.002113387,0.010964667,0.015062556,-0.008587135,-0.006999599,0.011714034,0.011212923,0.0022232272,0.014661254,-0.009343667,-0.0046421085,0.015501948,0.012438415,-0.0033486653,0.015553767,-0.007281244,0.010017512,0.009112725,0.005843384,-0.0097255595,0.013882618,0.011704057,0.015171025,0.0017881822,-0.00950611,0.014344795,0.007865634,0.010613695,0.0043396186,-0.0073863287,0.00870442,-0.0058911648,0.0059350654,0.012960369,-0.0067380033,-0.0031187218,-0.013992766,-0.005406145,0.0040484034,0.0012553111,0.0033557825,-0.0073265936,-0.011845756,-0.012493897,0.0064763147,-0.0069124773,0.0016168952,-0.004574461,0.013326716
NHLH001-24,-0.010116866,0.006496791,0.001067441,-0.011711653,-0.015293315,0.005905075,-0.0010560248,0.0025988333,-0.0049303323,-0.0013934802,0.00027227774,0.008007335,-0.0053514224,0.014373494,0.008013204,-0.003095584,0.0043937564,0.013234321,-0.0021969732,-0.004712226,-0.006838938,0.008780679,-0.009985227,0.014860213,0.010920387,0.0020467192,-0.010661278,-0.009381175,-0.012026532,-0.0054801796,0.004790971,-0.013955507,0.0059542265,-0.0034812,0.006644018,-0.0019638482,0.013165776,-0.010073753,0.0085247625,0.0051033758,0.004602393,0.010677474,-0.0060861036,0.006483214,-0.010011412,-0.005115658,-0.008344756,-0.009175628,-0.012020048,-0.00035210885,0.011113847,-0.01073694,-0.0067601763,0.015429346,0.010278314,0.013995225,0.0032203402,0.013258668,0.014288623,0.015426261,-0.00085841864,0.011658128,0.00822443,0.013236193
NHZ2001-11,0.012208074,0.0005402509,-0.012021976,-0.00776935,0.011358861,-0.013469268,0.00997757,0.0032100268,0.009284154,-0.0067949835,-0.009222971,0.015550647,0.0045618024,-0.009964714,0.0063768514,0.010300038,0.011888182,0.009190613,0.013317324,-0.01038355,0.0060900114,-0.012300009,0.010721907,-0.015068041,-0.0016984697,-0.008162538,0.006974781,-0.00266747,-0.00034654886,0.012150923,0.013077311,1.687184e-05,0.007949604,0.013688341,-0.00023171864,0.013606999,0.01335986,0.012887239,-0.013669478,-0.009609835,-0.012930814,0.006722465,-0.0030305088,0.011267474,-0.010594778,-0.010437934,0.0040925406,0.005290905,0.014831318,0.013471482,-0.0117151905,0.008456867,0.010307251,0.0086266305,0.0103937145,-0.0017539859,0.008298267,0.001118118,0.008715391,0.0004939288,-0.004335802,0.0009585619,0.0066628605,-0.010877745
ESZS012-17,-0.0781447,0.0796809,0.08531546,0.045669675,-0.01211986,-0.098491214,0.11524511,-0.021876948,0.03747543,0.004385178,0.09528607,0.12485117,0.1467971,-0.13065222,-0.08096034,0.051582966,-0.031454477,0.09589188,0.22374162,0.19139935,-0.12518923,0.045883972,0.119981356,-0.23465177,-0.072797924,0.15563561,-0.071621,0.0401814,0.15924282,0.08146705,0.12781931,0.16517495,-0.29280484,-0.018910594,0.0024169493,0.027511435,-0.045816008,0.20400435,0.13477524,0.008817234,0.23053592,0.062460262,0.059691116,-0.006316207,0.031488996,0.0056361044,0.09414316,-0.21307889,-0.12895569,0.06813273,0.18594562,-0.004568664,-0.01328832,0.1203392,0.045590244,-0.02367266,-0.024363061,-0.016874071,0.054543488,-0.17753167,0.061561927,-0.1138477,-0.042360503,0.032038998
ESZI025-17,-0.21521,0.1502049,0.30462846,0.12878674,0.014540741,-0.18663225,0.2364893,0.002934423,0.15512177,-0.036694348,0.22160302,0.34957692,0.2921976,-0.29053664,-0.21971461,0.13690208,-0.08646415,0.24985926,0.42100078,0.38712642,-0.23375754,0.096561104,0.29236406,-0.47028977,-0.06572222,0.23362699,-0.12237377,0.058157433,0.43011057,0.13471861,0.24403591,0.28163105,-0.55189353,-0.04019667,-0.0140718445,0.042131633,-0.09393544,0.400382,0.29999885,-0.09083363,0.52014756,0.047678955,-0.02236742,-0.05861584,0.14842442,0.018454527,0.21082409,-0.5782969,-0.26131436,0.053528212,0.3713634,0.030778695,-0.11046965,0.2506314,0.13815993,-0.09818721,0.06452131,-0.044872455,-0.002343138,-0.37052357,0.023291495,-0.26309547,-0.0472657,0.026918678
ESZI037-17,-0.12879062,0.09843123,0.106922336,0.085397996,0.006465528,-0.093542784,0.18144515,0.013086369,0.05088585,-0.069465786,0.10094976,0.12306149,0.18504387,-0.1810986,-0.06926054,0.012172556,-0.07250577,0.100840084,0.2641888,0.24775541,-0.18268506,0.03794241,0.15925199,-0.26708004,-0.092423506,0.21846607,-0.06907975,0.022440083,0.22532344,0.08867434,0.21938339,0.20973177,-0.38348225,-0.0478708,-0.02377104,0.032823235,-0.1132975,0.2519134,0.21333948,0.04923851,0.34268707,0.021523628,0.10207488,0.034592703,0.0015926093,0.004059688,0.12980755,-0.29964656,-0.13762869,0.092348464,0.24973817,0.03546096,0.07023332,0.14997143,0.039073393,-0.0033575364,0.009210398,-0.024299826,0.12816302,-0.23837122,0.10918514,-0.104582496,-0.08855399,0.07749594
ESAE001-23,-0.0721842,0.07051548,0.072083995,0.039263315,0.01657959,-0.07346758,0.11556014,-0.04955383,0.022597386,-0.01695962,0.08896241,0.108788274,0.14890301,-0.13786177,-0.08228741,-0.0013182957,-0.04960799,0.07314756,0.2242466,0.22667052,-0.15188332,0.055445485,0.10682983,-0.23762628,-0.069196425,0.1752743,-0.06616387,0.015745008,0.16822033,0.058383416,0.13184115,0.18143043,-0.3279413,-0.030478584,-0.0050591,0.040728662,-0.09578251,0.19072649,0.14052439,0.03336431,0.28443557,0.03181368,0.08176027,0.021761043,0.026026046,-0.016176887,0.09325627,-0.26008344,-0.14048493,0.050142214,0.20134683,0.0057550813,0.015916552,0.11206136,0.0005151551,-0.0106141,0.00513732,-0.019144524,0.06918074,-0.18919149,0.066055946,-0.11371529,-0.060875334,0.054061744
MCZA002-17,-0.1654824,0.16682257,0.07867193,-0.003431117,-0.020038286,-0.15198797,0.24649778,-0.0575687,-0.043358784,0.11681498,0.08079947,0.36434764,0.108128846,-0.16952743,-0.16466044,-0.02504465,-0.17728308,0.06642275,0.3772719,0.23901963,-0.31286073,0.05398643,0.3463725,-0.3234171,-0.21689792,0.23869915,-0.12438512,-0.009222396,0.26612097,0.21169986,0.21182209,0.21772362,-0.37176743,-0.0421522,-0.019564986,0.21022947,-0.11201871,0.3784517,0.112596825,0.033156365,0.55314827,0.065170005,0.25420418,-0.11347715,0.12078862,0.07800393,0.14212945,-0.48391625,-0.31435874,-0.012484249,0.4793819,-0.07023036,-0.09317022,0.1925032,0.13828184,0.013881508,0.11612617,0.14010929,0.32331684,-0.29862958,0.16251256,-0.34746477,-0.14083359,-0.072824225
ESZE102-17,-0.053154636,0.060491856,0.10560454,0.02108044,0.026066897,-0.10562887,0.103970684,-0.013469042,0.04658274,0.00461954,0.10112076,0.092334405,0.14771798,-0.17170578,-0.07978472,0.034448132,-0.02316377,0.09877601,0.17950156,0.21283591,-0.14337483,0.07100058,0.10848442,-0.24369244,-0.06013004,0.16862209,-0.047727965,0.029389918,0.16836093,0.10349633,0.11131168,0.117031716,-0.3336765,-0.009970561,-0.01002504,0.019177504,-0.09063043,0.19829963,0.15963508,0.0082585085,0.23418379,0.04943646,0.07452429,0.015098667,0.026468901,-0.013621099,0.11669475,-0.24158198,-0.12699316,0.03739384,0.23971857,-0.035855204,0.035497285,0.1661578,-0.0128020365,-0.014954945,0.0066664442,-0.015758619,0.034548033,-0.12224782,0.03510479,-0.09514865,-0.08553464,0.042708036
MCBM003-23,-0.09233666,0.100211896,0.081529945,0.044481225,0.0129868,-0.07087986,0.08324012,0.011958932,0.010096042,-0.021393498,0.07174964,0.16043212,0.21149635,-0.13756068,-0.06178878,0.013617259,-0.030077456,0.102365546,0.21593598,0.22736269,-0.14661145,0.028321208,0.13723949,-0.26243278,-0.086865515,0.12873594,-0.07497026,0.03732781,0.20022954,0.04200976,0.14572126,0.1923492,-0.3068887,-0.019188765,0.008219127,0.015117408,-0.06788971,0.21080716,0.15224746,0.03354808,0.29963917,0.026069814,0.060720734,0.063726,0.060854863,0.016442696,0.10464166,-0.267866,-0.12061539,0.061248835,0.20632017,0.021836374,0.023550982,0.14597288,0.05974483,-0.04646466,0.005810435,0.0005873948,0.07914586,-0.1847235,0.036503777,-0.09514618,-0.056344073,0.071498126
MCBM015-23,-0.08496204,0.12035418,0.120763466,0.016060693,0.012817166,-0.097118564,0.099765666,0.005759664,0.026155354,-0.009852122,0.081400424,0.16929823,0.22775634,-0.18027328,-0.09911542,0.019074393,-0.05022739,0.118632525,0.25533557,0.24033394,-0.16314246,0.027738942,0.17639212,-0.28588432,-0.10870882,0.16889764,-0.08701804,0.050472494,0.24407081,0.061832704,0.17406783,0.19944943,-0.36085624,-0.011110286,0.004718323,0.020872202,-0.079840176,0.2193026,0.17664956,0.045279626,0.3301408,0.035980646,0.0550554,0.041797753,0.071953006,0.023546107,0.10544371,-0.29922754,-0.16120051,0.07795956,0.20333527,0.014023631,0.008329435,0.18065916,0.024874805,-0.04683717,0.004632253,-0.0039923564,0.091245115,-0.24187785,0.055303395,-0.122702524,-0.075814225,0.081765875
BHS0002-23,-0.0057602916,-0.0021738503,-0.009895064,0.0028227083,0.007830106,0.003845727,0.008527938,-0.015228944,0.0051416475,-0.0003276933,-0.007890487,-0.0004044529,0.0077730045,0.015067136,-0.010456219,0.007851804,-0.013363676,0.0077018123,0.0007646829,0.012268426,-0.012907183,-0.0046009514,0.010647137,-0.012380291,-0.013724346,-0.0065324716,0.010933373,0.009666197,-0.0057827756,-0.014547722,0.0076519176,0.0044602994,-0.0041439403,0.0024989806,0.004304286,0.0129677,-0.015246423,0.0010875743,0.0055612195,-0.010912612,0.012257947,0.0072105024,0.00059063546,-0.006482521,-0.007715646,0.014332239,-0.0033277348,-0.0038656145,0.0002721306,0.0066332687,0.0036730934,-0.0015981868,0.013910431,0.009185549,0.010927707,-0.0015359968,0.0035851747,0.006326938,0.014192555,-0.001214115,-0.013952464,0.0064208154,0.0017911643,-0.00034120306
NHZ2091-16,0.0052472036,-0.010343157,0.0064220373,0.011501906,-0.007837672,-0.007621901,-0.0063947476,0.0061382633,-0.007984884,0.009739624,-0.005226506,-0.012713514,-0.0060980804,0.012067668,0.0013401695,0.015305979,0.010459669,-0.011325993,-0.010329669,-0.001047045,0.0072451215,-0.013438383,0.013347561,-0.015081607,0.0048098136,-0.01121884,0.0046300367,-0.009571105,-0.010347251,0.010999167,-0.00587002,-0.0060862694,0.006738808,0.010510763,0.0057116766,0.010912156,-0.008904742,0.005343925,0.014249628,-0.009876037,-0.008725887,-0.0047317687,-0.015043896,0.012150193,-0.0066377874,0.012193229,-0.0010285601,0.0022412334,0.0016538389,0.004658483,0.006545389,-0.011584582,-0.0058014393,0.0128628295,-0.0117368605,0.009734523,0.014407892,0.0010609161,-0.003807336,-0.0024268162,0.005351033,0.0060016494,0.009328367,-0.0042181984
ESZE097-17,-0.04837417,0.049440507,0.08720971,0.0242551,0.011238175,-0.08918556,0.06257415,-0.031213647,0.06475976,0.015692053,0.08551576,0.07192539,0.12150321,-0.15015069,-0.048422378,0.028085278,-0.05700409,0.075381495,0.14922424,0.1741183,-0.109088644,0.06163798,0.09618336,-0.16579576,-0.07576701,0.1616117,-0.057584792,0.05012779,0.120153874,0.054328542,0.08323772,0.0973073,-0.26300877,-0.0046368935,0.01672478,-0.0028612835,-0.054372825,0.1712595,0.12548934,-0.00459968,0.16026077,0.03813824,0.05510135,-0.0013140287,0.0017918748,-0.022524195,0.10860672,-0.18717554,-0.08142667,0.0041839266,0.19654182,-0.050794005,0.02274284,0.1232359,-0.024859475,-0.0026943672,-0.024713062,-0.016381713,0.012742899,-0.06625547,0.036405448,-0.06383871,-0.060208455,0.06513833
MCTA004-17,-0.043322742,0.16910505,-0.03995659,0.10801887,-0.019607134,-0.13209894,0.62765396,-0.21454838,0.17380583,0.0258408,0.05796832,0.25521746,0.34154233,-0.52991134,-0.11702107,-0.3041391,-0.48141474,0.3993147,0.6227106,0.650499,-0.5169838,-0.031916015,0.1061649,-0.18623261,-0.28910097,0.3970332,-0.10740984,0.34396988,0.61908466,-0.08141769,0.5564096,0.47822857,-0.5379862,-0.33263057,-0.082151435,-0.00014484406,-0.47425693,0.5321602,0.34026584,0.12563592,0.67850363,-0.022379339,0.08164216,-0.10075344,0.1266844,0.028599704,0.2146374,-0.4222662,-0.24725594,0.2180082,-0.0008151928,0.09868025,0.25340134,0.41981032,-0.30861953,-0.16284543,0.30760062,-0.09018212,0.47204795,-0.5330381,0.16088742,-0.09918623,-0.13775514,0.014205049
MCZA003-17,-0.08650538,0.12718773,0.10983977,0.067612246,-0.0017637546,-0.15760139,0.33264568,-0.10548607,0.11876223,0.02685267,0.11831369,0.21934722,0.28266355,-0.33424774,-0.14639822,-0.032587945,-0.21629387,0.21326578,0.42874694,0.42341343,-0.29561043,0.06708062,0.17761853,-0.34237966,-0.22101653,0.30650172,-0.07737537,0.14345168,0.4276173,0.04191667,0.2736212,0.34341633,-0.5382283,-0.12591776,-0.010124821,-0.0043487395,-0.21176036,0.36653987,0.255997,0.05810434,0.45664868,0.06199261,0.05588759,0.007402643,0.08603403,0.04872044,0.2262516,-0.38671434,-0.21469542,0.1418441,0.24824229,0.03086345,0.0713053,0.2696404,-0.02797451,-0.09493971,0.08182881,-0.013722465,0.18491592,-0.35479107,0.0952708,-0.14612725,-0.07731706,0.029622896
ESHT001-17,-0.1804823,0.2813751,0.421238,0.36865583,-0.42509896,-0.27537808,0.5819347,0.41765338,-0.13828273,-0.27951849,0.4956668,0.21450678,0.2523193,-0.07592294,-0.22759913,-0.11248537,-0.063233845,0.30293974,0.16171153,-0.008339749,-0.054445636,0.2877343,0.4716663,-0.454716,0.109335326,0.12077279,-0.15508065,0.35257617,0.035340127,0.09727374,0.18333784,0.32533965,-0.32638255,-0.34700975,-0.071934536,0.07291354,0.059348643,0.23487082,0.31096587,-0.1913978,0.2633291,0.19493216,-0.12396331,-0.19592689,0.10040536,-0.011995778,-0.2414159,-0.20042819,-0.19540732,0.36017466,0.1712754,0.15861456,-0.13929182,0.3380382,0.2979969,-0.06883585,0.1562775,-0.26771805,0.04455523,-0.30483052,0.19122134,-0.20129436,-0.21193758,-0.17395386
NHZ2092-16,-0.011662066,-0.0038438085,0.005959166,-0.008324742,-0.0129024405,0.0053813625,-0.0018278062,-0.0109297745,-0.009357881,0.0021044817,0.0046567824,0.004797848,0.004074024,-0.013394041,-0.0018147081,-0.00077129714,-9.828061e-05,0.0014409311,0.015549716,-0.0100886505,0.0037345532,-0.007222727,0.008438015,0.009149712,-0.00029678643,0.012504714,-0.010691008,-0.0025781095,0.009686351,0.007924836,0.01206973,-0.007194128,0.010279557,-0.008147739,-0.011630977,0.006382322,0.012316316,0.0030777939,-0.013067834,-0.0071017426,-0.0052937753,-0.0057791118,0.0013503935,-0.012510506,0.00024470314,0.0004692506,-0.00528617,0.0096867755,0.009625779,0.0026405528,-4.7063455e-05,0.006816378,-0.0065661557,-0.0066406596,0.0040115565,0.00445877,0.01367357,0.010547265,-0.009747963,0.013681453,0.010377748,0.007975038,0.0066102594,0.0006780159
NHLF001-22,-0.011497406,-0.008080125,0.0034406371,0.0032124873,0.008984145,-0.015209759,-0.0144637,0.008770091,0.005485831,-0.004879046,0.014818303,-0.009797743,-0.0011318568,-0.009807473,0.005201297,0.013564099,-0.00047598407,0.009741243,-0.0042585097,0.0056042746,-0.0037553497,0.011489917,0.014889747,-0.00028626807,-0.00838735,0.0045043956,-0.015532447,-0.0022841282,-0.010420645,-0.006230857,0.004210731,-0.0013986006,0.0026719011,0.003170507,0.00020925328,0.0076553263,0.013603782,-0.012541145,-8.9207664e-05,-0.0017194897,-0.012233585,0.007194426,-0.00045024604,0.001351675,0.009459998,0.0139143225,-0.0077059977,-0.012911588,-0.0133167785,-0.008746123,-0.0006606374,-0.013131512,-0.0038183928,-0.00089521706,0.0128379185,-0.0073253457,0.013628313,0.014615146,0.002038706,-0.014867514,0.0068836194,-0.014370222,0.005048925,0.004230583
ESZP011-13,-0.003344018,-0.01330637,0.010712879,-0.0040970296,-0.012802286,0.014819296,-0.0033069644,0.011863172,0.012274696,0.014501223,-0.013480963,-0.009315295,0.00038127787,0.0058473665,0.013665821,0.0065037776,0.008795856,-0.0041665565,0.0048311204,0.0053561907,-0.012726005,0.0032371897,0.015148127,-0.013127176,-0.0027728062,0.013825871,-0.0089250095,-0.008654529,0.0014078673,0.01124472,-0.009083962,0.0012006611,-0.012001513,-0.007006947,0.013390234,-0.0143510625,-0.00033120438,0.015177123,-0.009066746,-0.0045145787,-0.006747661,0.0072723497,-0.008879,-0.0030220784,-0.014447948,0.0054704063,-0.006354507,-0.0010780543,-0.012599977,-0.008485973,-0.0027603265,-0.009145889,-0.013626179,-0.0109265875,-0.004409235,-0.005582547,0.015032368,0.0147103,-0.0005995687,-0.0009048972,-0.014317812,0.015524961,-0.010689661,-0.0062188487
ESZR023-21,-0.082988665,0.07979311,0.09514031,0.07289405,-0.012941492,-0.0862937,0.12507576,-0.010931105,0.021150688,0.0025375618,0.11227797,0.095780544,0.14018533,-0.13674752,-0.08544157,0.00757753,-0.048124216,0.08343067,0.18003923,0.18811275,-0.145406,0.07797865,0.13089438,-0.24204709,-0.05669146,0.17863928,-0.078779496,0.01092101,0.15296064,0.056317206,0.121769994,0.1465477,-0.30971062,-0.04971378,-0.023460876,0.025038764,-0.056366615,0.2060098,0.15069473,0.040811498,0.2628476,0.048374124,0.051324934,0.019550443,0.02843715,-0.009152811,0.065755434,-0.22791341,-0.116584405,0.04075456,0.1819405,0.0003310671,0.016747229,0.14786805,0.023341168,-0.038878452,0.004721522,-0.023119833,0.08702832,-0.18959142,0.042342335,-0.08088678,-0.09129765,0.07422646
LHZ0004-19,0.0014447533,-0.00076503307,0.010602899,-0.010412114,-0.00066232495,0.0045305155,0.010342283,0.013690686,-0.011344783,0.010768697,-0.013814174,0.0034504738,-0.0017491691,0.0011853315,0.0075311866,-0.01502201,0.012890423,-0.003761433,-0.003400933,-0.004376283,0.0014784727,0.0064661857,-0.0037595648,-0.011736833,-0.0090307165,0.0028975848,-0.0076042525,-0.01186654,0.011153471,0.0128884725,0.00071047246,0.015296545,0.00963895,0.0041788183,0.00012127496,0.004798129,0.007835222,-0.010409685,-0.0064304937,-0.0017274413,-0.000779273,0.009431118,-0.0029589422,0.010031106,0.004624268,-0.012577916,-0.0030275024,0.0056696087,-0.001636127,-0.015377652,-0.0074849892,0.0068345573,-0.014551373,0.0046636835,0.009559145,-0.0030532517,0.0016088914,-0.01481325,0.012271296,0.0009549502,0.005583016,0.012973972,0.0018140245,-0.002073435
NHZ1074-15,-0.022693403,0.01922763,0.03885993,0.029956378,0.027485715,-0.03688373,0.06503983,-0.0138538405,0.027940312,0.01539549,0.034964085,0.06032385,0.09589347,-0.091439486,-0.043888733,0.022163281,-0.020107951,0.051277034,0.11442898,0.11065238,-0.08294423,0.017700724,0.076486096,-0.13055705,-0.034152664,0.08382688,-0.01690243,0.01834923,0.08594553,0.027655121,0.07823187,0.090455584,-0.16798832,-0.0041812374,-0.0072183693,-0.005251928,-0.050124828,0.08619663,0.07409834,0.021990038,0.120382205,0.028767152,0.039827105,0.0002784937,0.012179312,-0.011080924,0.04497389,-0.12734886,-0.06395754,0.022154318,0.09035419,-0.017606575,0.0046488964,0.083882175,0.02146869,-0.01787584,-0.0098524755,-0.014576057,0.03754663,-0.09855788,0.023799723,-0.055810068,-0.032342315,0.036120664
MCZC010-15,0.013563894,0.010222234,-0.001468597,-0.012426216,-0.005976096,0.013836274,0.012969445,0.001836393,0.011414008,-0.013361096,0.0030997992,-0.0028750896,-0.006625902,-0.012973592,0.013422502,-0.0052636787,-0.0066284854,-0.005316891,-0.009814691,0.011154763,0.011220863,0.0076887477,-0.014898902,-0.00310505,-0.014840616,0.01051723,0.014489625,-0.014217075,-0.0062382948,-0.0010907147,0.0033040624,0.012992276,-0.0060759,0.00930229,0.0043318737,0.0072670802,0.009907618,-0.008520123,-0.01033584,0.0007035397,0.0063456986,-0.00309523,0.0036204495,-0.014824042,0.01363169,0.0091196615,-0.009659257,-0.010678766,0.009724449,-0.01162469,0.003730053,-0.003338134,0.010781921,0.010798173,-0.0028878227,0.012908196,0.00013523176,0.0044095833,-0.0101911165,0.0007062778,0.0033113807,0.010147328,-0.01178864,-0.008654369
BHS0004-17,-0.13539924,0.11912352,0.12974015,0.086500145,0.008209187,-0.13135463,0.18863644,0.021455387,0.08187937,0.011206364,0.11704151,0.16136241,0.26411584,-0.21121575,-0.1104503,-0.015802385,-0.052276492,0.11684491,0.24978654,0.20443642,-0.18339771,0.06764082,0.2100411,-0.31313366,-0.11669926,0.22169238,-0.07975065,0.03414877,0.20959045,0.05857992,0.16003162,0.23290542,-0.38156745,-0.07232757,0.02073647,9.147974e-05,-0.08026019,0.20468806,0.23860542,0.03378062,0.32987782,0.06574627,0.07680924,-0.035800785,0.056748286,0.017258028,0.073976606,-0.30270305,-0.17613922,0.101889715,0.27048096,0.013727287,0.018072687,0.23061514,0.019786501,-0.04438206,0.031789955,-0.03760722,0.099081166,-0.27648935,0.06729545,-0.10996575,-0.06923782,0.07068482
ESZP035-14,0.007906251,0.01353796,-0.008649988,-0.0031313617,-0.0017463434,-0.0066633075,-0.012929289,0.0020901356,0.008966042,0.013742978,0.01291484,0.011913801,-0.012131371,0.01516171,0.008721111,0.003969604,0.009820964,0.00895066,-0.0118065495,0.011362601,-0.004066875,-0.004779665,0.0076267906,-0.0025723688,-0.0076686144,-0.004080629,0.0028300397,-0.012031214,0.006157737,-0.009643011,0.009121953,-0.0031723343,-0.006737441,-0.008952681,0.004557496,-0.015553502,-0.014602115,0.010689279,-0.012470849,-0.014480496,0.0001665242,0.006626794,0.0030008703,0.014199989,-0.00586061,0.010868112,0.0054886565,0.0124343075,-0.013106465,0.010342484,0.008635063,0.0030448139,0.008183718,0.014569137,-0.006445691,0.0124917235,-0.004907893,-0.006549852,0.0046684965,-0.012193203,-0.01447146,-0.0025922637,-0.0021161344,-0.004567882
ESHR018-21,0.004569242,0.0056819525,0.013592899,0.0015451238,0.014950704,0.009599643,-0.007447237,-0.011312421,0.006032856,0.001644738,-0.0034849457,-0.013818191,-0.0030257478,0.00800601,0.013548497,0.013755735,0.005600039,0.0012400318,-0.0073386803,-0.0051642563,-0.0010597408,0.009989718,0.001201503,0.0114916265,-0.015289092,0.003970545,-0.003927689,-0.00066927075,0.008424675,-0.0055849347,-0.01294893,-0.0040633455,-0.012477271,0.004514506,0.007921137,0.0016049407,-0.014618101,0.006360866,0.005473664,0.015228437,-0.013016066,0.0010282416,-0.009698963,-0.007671442,-0.012760637,-0.0075638145,0.013026422,-0.0038249772,0.011352802,-0.014178401,-0.0016601272,0.0071497876,0.006151827,0.009479789,-0.0026543029,-0.0112302415,0.0006831754,-0.013604159,-0.0021160021,-0.0128931925,0.0071490724,-0.0031758472,0.013982551,-0.00076589733
ESZE010-17,-0.05672632,0.040855527,0.08569285,0.02334445,0.035828087,-0.12088592,0.06994649,-0.041549176,0.08479641,0.01054366,0.12685533,0.09750616,0.15680729,-0.17489403,-0.080787376,0.014548953,-0.028685482,0.0903213,0.18400168,0.19868736,-0.107088976,0.073038444,0.09521039,-0.21579084,-0.08733905,0.18560326,-0.050484516,0.03463235,0.13737303,0.07565,0.115212224,0.12102912,-0.29877776,0.013890902,0.01214645,-0.0016159035,-0.088960044,0.20613798,0.1509433,0.008136331,0.21430475,0.031238774,0.057785463,0.029143622,-0.023295335,-0.026755253,0.12983093,-0.22388184,-0.09864609,-0.0039220876,0.22805928,-0.0691831,0.032986812,0.15935192,-0.034535933,-0.022805633,-0.025523622,-0.034060977,0.037867546,-0.12284381,0.029080063,-0.06259142,-0.051252577,0.067548096
ESTA011-17,-0.20291336,0.050985046,-0.1481624,0.24625114,-0.49798158,-0.2941774,0.124190725,-0.050534595,0.22835517,0.07466405,0.2827576,0.51984274,0.65256923,-0.37485924,0.13507333,0.25995958,0.10937272,0.2559591,0.5970745,0.5950166,-0.36522025,-0.16070801,-0.06722847,-0.5604165,-0.43034032,0.55811405,0.03359091,-0.22037609,0.3235568,0.12767892,0.5453836,0.45570317,-0.911615,0.0067045954,0.013941121,0.012192507,-0.21415776,0.71946305,0.5906585,0.09400873,0.4451254,0.14835224,0.08592303,-0.38553,-0.022227498,-0.001391683,-0.08598385,-0.2654189,-0.079165325,0.39784062,0.29158235,0.06630537,0.16710891,0.7704312,0.29775313,0.07363039,-0.011477027,0.1628711,-0.22023356,-0.73931897,0.46636087,-0.20293716,0.25036412,0.61503613
ESZG028-17,-0.084917314,0.08813109,0.1092353,0.08215751,0.001743594,-0.12937376,0.14442071,-0.047192965,0.069638245,0.005181071,0.12127549,0.13889462,0.22197144,-0.21478517,-0.090321474,0.018495556,-0.08622258,0.14070565,0.28234476,0.23331642,-0.18821676,0.033503696,0.17326033,-0.32576555,-0.1009667,0.2081352,-0.10433994,0.04057067,0.2124288,0.052793458,0.1528926,0.21719861,-0.4093349,-0.05589259,-0.028004078,0.027062008,-0.08476507,0.23716499,0.18035437,0.025472412,0.35371602,0.025004588,0.10760746,-0.0070938463,0.049381495,-0.0012404931,0.10348194,-0.29214162,-0.15771526,0.05594241,0.29052383,-0.0022041625,0.034463022,0.15860772,0.029064506,-0.034530524,-0.010394297,-0.007913192,0.07652584,-0.22885789,0.05459617,-0.11148087,-0.09183633,0.080196336
ESAU012-23,0.010312803,0.011390446,0.0021114834,-0.0020963252,0.009596001,-0.0032209437,-0.012325183,-0.00015502423,0.00539615,-0.0065386314,0.003342919,-0.0001750458,-0.009417934,0.004468359,-0.014318895,0.014106384,0.003886437,-0.0050198734,-0.0035120044,0.0067139585,0.0044802465,-0.0144908335,-0.007500073,0.0025274865,-0.009892711,0.0031046607,-0.0025656633,-0.0064549297,0.0041843466,0.013769928,0.014288213,0.012363298,0.008976925,0.0055965353,-0.010243705,-0.0024047159,-0.007832076,-0.0097073,-0.0009884853,0.006055724,-0.0111635495,0.006390255,0.013151165,-0.0027851127,0.01326737,-0.0029210579,0.011032391,0.015582675,0.0076166745,0.004586635,0.0041460786,-0.005383568,-0.0031165723,-0.0065997336,-0.0037485734,0.0037288796,0.002756646,0.010188231,0.002404606,0.012414347,-0.0011194125,0.0035127122,3.0409545e-05,0.012543334
MCZA004-13,-0.0042132144,-0.0044552055,0.017162533,0.012868632,0.012072204,-0.0130859,0.01520306,0.009388923,0.013640866,-0.009907743,0.015785782,0.014731085,0.046654835,-0.018765723,-0.010472497,0.008536038,-0.017086595,0.029956924,0.04686874,0.028199274,-0.0271527,0.019729314,0.008063598,-0.03700441,-0.002129612,0.029453998,-0.013811921,0.012958916,0.038141,-0.00042195467,0.027763428,0.023163827,-0.06050847,-0.0006885989,0.012239479,-0.006346914,-0.016155634,0.020929513,0.026584543,-0.005789206,0.04235551,-0.0069074966,-0.0017611824,0.009837158,0.01332783,-0.004280963,0.013971786,-0.031900592,-0.030813895,0.0007375079,0.040403098,-0.008166442,-0.011301173,0.040299203,-0.00038218836,-0.0033895853,-0.013145867,-0.0052538,0.0012808929,-0.02994722,-0.002948855,-0.008094629,-0.014278328,0.00096500566
ESTU025-17,-0.21144447,0.20447463,0.347873,0.24260938,-0.18382737,-0.1939481,0.33212405,0.182678,0.01986504,-0.11490651,0.28855538,0.18669811,0.31737295,-0.21309985,-0.2354325,-0.096464895,-0.07157053,0.19758284,0.33301643,0.26381272,-0.15028898,0.15706953,0.38074514,-0.4772127,0.0075925007,0.27220634,-0.15596952,0.19935052,0.21906446,0.12539873,0.20365642,0.28340968,-0.47563797,-0.20105976,0.011453053,-0.0021531912,-0.07811915,0.2681424,0.2461811,-0.06455901,0.34644306,0.08905451,0.03362458,-0.059433166,0.074668765,0.0071867886,-0.041300658,-0.32405177,-0.30869114,0.25146762,0.3220293,0.11524532,-0.064953685,0.2697602,0.12600902,-0.0472885,0.010846082,-0.16679156,0.14979418,-0.29846907,0.13641192,-0.21489389,-0.14875594,-0.050031208
ESHP031-22,-0.111183114,0.07318501,0.1939297,0.07128583,-0.05156645,-0.18702817,0.18670896,0.011868362,0.035247795,-0.12310706,0.1932803,0.17168362,0.25797486,-0.13451189,-0.17247601,-0.02592526,-0.12864247,0.13035075,0.3489755,0.31368464,-0.2474677,0.10297075,0.23137623,-0.3214742,-0.043338977,0.20857213,-0.1435982,0.11236062,0.2787184,0.16111761,0.2114972,0.19138215,-0.41554186,-0.1114898,-0.07595299,0.10198753,-0.17078449,0.23871337,0.22805098,0.04604662,0.38529068,0.07170855,0.10753783,0.007431715,0.105011016,-0.047636133,0.08295001,-0.3393313,-0.17761678,0.10888981,0.2710001,0.07244122,0.038130846,0.2003937,0.019235786,-0.044311516,-0.02979884,-0.10749579,0.10825707,-0.3459178,0.16726443,-0.13990456,-0.13053407,0.009570365
NHT4072-15,-0.17821023,0.10982187,0.37878165,0.03378541,-0.1855372,-0.012556135,0.19495913,0.28935236,-0.061059244,0.018411888,0.2645596,0.12003128,0.20644678,-0.28260615,-0.044659864,0.08159173,-0.01383139,0.3370104,0.4640807,0.4142673,-0.21690702,-0.07536851,0.42833042,-0.5924397,-0.119752534,0.31766552,-0.018543722,-0.054100465,0.33332092,0.25563806,0.124962054,0.44138083,-0.63623536,-0.008186143,-0.16380396,0.20977479,-0.01687584,0.2500162,0.3545157,-0.135455,0.62149614,0.23031573,0.053880017,0.050811164,0.07879859,-0.12908812,0.111057214,-0.6041468,-0.27507684,0.050747085,0.47351858,0.14765696,-0.042398192,0.20942685,-0.08620074,-0.049787972,0.06849638,0.025156017,0.23827277,-0.5047367,0.16246742,-0.026647614,-0.057505365,0.1687278
ESZS004-17,-0.06750807,0.09584806,0.09990953,0.04173546,-0.0037855143,-0.09580344,0.11003591,-0.0073186816,0.033966426,-0.014910212,0.09348005,0.12604946,0.15815802,-0.14434163,-0.08444149,0.014818144,-0.05918309,0.11238542,0.18574297,0.1529298,-0.12890668,0.03825989,0.10641857,-0.2170843,-0.044132955,0.1436455,-0.08119373,0.039921578,0.14798187,0.07989071,0.09564875,0.12601565,-0.26788154,-0.048995454,-0.010678826,0.007679059,-0.069904104,0.19110085,0.13956706,0.011067575,0.19460346,0.024085866,0.031316858,-0.02210431,0.033601597,-0.024507316,0.062568724,-0.204762,-0.11701416,0.029253887,0.17072709,0.0052953977,0.0067397896,0.1275561,0.034848575,-0.038731914,0.0104471175,-0.018585596,0.06395527,-0.1687824,0.04232557,-0.08344472,-0.067008056,0.04409432
MCZA005-17,-0.026039267,0.028845502,0.0352583,0.02020412,0.027520755,-0.036087982,0.04803563,-0.03407631,0.03320531,0.00020148282,0.021210775,0.039767087,0.0903591,-0.067130506,-0.0489872,0.01935046,-0.025321975,0.04969627,0.10781855,0.08907972,-0.066367626,0.014251739,0.049526375,-0.08668932,-0.05193268,0.064106144,-0.024147138,0.010980129,0.09937881,0.044686556,0.0780156,0.06452709,-0.13961089,0.007326134,-0.0011910306,-0.004338184,-0.046320908,0.08806844,0.06310511,0.018568799,0.12884009,-0.007564935,0.05082586,0.024700232,-0.0024908953,-0.0058567384,0.06420328,-0.099227324,-0.060197026,0.0020686616,0.093836814,0.013637767,0.021143261,0.072104886,0.01622638,-0.012334426,0.012632874,0.019091116,0.03903534,-0.095856056,0.03469937,-0.024828194,-0.03192142,0.023496108
BCS0001-15,-0.1506775,0.23914447,0.15691158,-0.014359169,0.026702397,-0.15493405,0.33647522,-0.088660195,0.13309225,-0.30103275,0.1433731,0.16435564,0.454847,-0.2360835,-0.2043331,0.12579592,-0.012522596,0.2101514,0.37306458,0.26952517,-0.41064182,-0.0836455,0.26281244,-0.4786666,-0.27010342,0.2817573,-0.24293585,-0.12031158,0.27895212,-0.0534835,0.20113571,0.25330672,-0.72352326,-0.26178423,0.10698071,0.08497119,-0.39399555,0.43784502,0.10750638,0.020239672,0.44203088,0.19012883,0.10368964,0.036497682,0.119026154,-0.16328426,0.21813647,-0.30461258,-0.24081849,0.1959702,0.27780476,0.07670965,-0.07097826,0.38104957,0.17417938,-0.011092913,-0.19111963,-0.07439811,0.110845976,-0.35048735,0.0024488783,-0.09983573,-0.17308989,-0.039765947
BIS0005-15,-0.13518547,-0.005736807,-0.016234942,-0.09689599,0.12856112,-0.11676687,0.05979659,-0.15112889,-0.04837938,0.07460019,0.045817364,0.14756002,0.14843547,-0.25608894,-0.119712405,0.064915136,-0.11838673,0.29535508,0.5853085,0.42576674,-0.27943107,-0.18219177,0.26132864,-0.18102223,-0.17049518,0.39306498,-0.07370406,-0.2215851,0.42267394,0.10076123,0.12115225,0.29371804,-0.52490085,0.00038567395,-0.15380877,0.024765555,-0.10193704,0.31055117,0.32805687,0.12211547,0.50800115,0.18159431,0.059780594,-0.10898697,-0.0139966495,0.021931734,0.18414241,-0.4744041,-0.2067879,-0.011687224,0.31203386,-0.1205911,0.21840027,0.15356761,0.12840696,0.19963428,-0.10033534,-0.097445145,0.28482354,-0.42682454,0.21667685,-0.21437083,-0.17385964,0.1627864
BIJ0207-15,0.019333372,0.08680534,0.2724313,-0.05456535,0.048066735,-0.32705835,0.030503798,-0.16947308,0.18852276,0.025499646,0.3829326,0.04816099,0.15607154,-0.4696458,-0.14870368,0.03694371,-0.066201374,0.12941524,0.28029975,0.39935166,-0.1457279,0.29811543,0.13477103,-0.31925142,-0.13917328,0.432158,-0.02887853,0.1725633,0.20960224,0.20141385,0.15267052,0.03654988,-0.5813511,0.14191614,-0.0072884485,-0.076323956,-0.25144923,0.4548161,0.24402925,0.023963042,0.20897609,0.060338873,0.19330016,-0.027729439,-0.12888186,-0.14832415,0.3641482,-0.3035571,-0.1366668,-0.19117896,0.51282585,-0.28823864,0.075674295,0.41874972,-0.22069028,0.011879717,-0.019790733,-0.11793177,-0.09667529,0.06600764,0.066211954,-0.051102243,-0.1349472,0.1057141
BIR0004-15,-0.09206297,0.095313646,0.102534406,0.06976709,-0.035158966,-0.108719565,0.21460302,-0.0021859999,0.03808128,-0.025133017,0.12185734,0.15865283,0.21345021,-0.18278562,-0.11948251,0.008143156,-0.054931555,0.115786545,0.27150398,0.20403455,-0.18288538,0.043388765,0.19640616,-0.29138166,-0.063172705,0.18795374,-0.08454157,0.04162474,0.16064698,0.056642976,0.15032998,0.21154216,-0.3705334,-0.07530403,0.02229355,0.052531116,-0.10135193,0.23825163,0.18944056,0.0080794385,0.31828478,0.0592278,0.08588833,-0.016246252,0.024194533,0.0016431491,0.10662255,-0.29509935,-0.1445739,0.11564938,0.21427074,0.0373367,0.00046889487,0.16723867,0.022021905,-0.026148282,0.0049983,-0.0636743,0.11479609,-0.22805676,0.09771973,-0.12912843,-0.10830658,0.0326955
BIS0003-15,-0.14587355,0.10254842,0.10080314,0.05560173,-0.0038912487,-0.14147916,0.22441387,0.013202507,0.014866209,-0.023358466,0.08607754,0.13326058,0.17971344,-0.19430417,-0.07882459,0.061073173,-0.0954775,0.1595516,0.3706467,0.28700736,-0.24485171,0.07276788,0.20700523,-0.2779681,-0.13509917,0.2845764,-0.10965771,0.010706191,0.2769574,0.13241994,0.16608168,0.22293378,-0.49452567,-0.13017291,-0.05061198,0.01804851,-0.14809725,0.28565633,0.22379114,0.04246031,0.37078017,0.08232599,0.11230388,-0.06576223,0.050515845,-0.09284196,0.09875544,-0.4585974,-0.15377715,0.07714235,0.31484002,-0.05912267,0.01309362,0.23472787,0.07426216,-0.02170528,-0.023380943,-0.10486032,0.07970824,-0.2686154,0.091247514,-0.1677528,-0.12904996,0.07352605
MCZC002-15,-0.04879819,0.050925422,0.040932897,0.03611689,0.014925573,-0.0643795,0.064551845,-0.037115075,0.05859869,-0.024467567,0.04005219,0.05598769,0.10164684,-0.101305954,-0.06645418,0.015281291,-0.038325086,0.04037401,0.13003953,0.14599921,-0.08711879,0.01052194,0.07364177,-0.15449643,-0.068833925,0.12083606,-0.05097222,-0.0012416397,0.11974803,0.0242226,0.07008438,0.107590035,-0.21931973,-0.03576606,-0.0034355712,0.015213731,-0.062496595,0.14370747,0.094057776,0.016341684,0.17751877,0.03821437,0.042783916,-0.005539103,0.020577641,-0.011307405,0.07445874,-0.15698119,-0.06002716,0.01235001,0.14920703,-0.007712102,-0.007411456,0.10652079,0.03154633,-0.00082759507,-0.03525835,-0.0023178693,0.065756604,-0.10607788,0.042843994,-0.033346307,-0.06475761,0.020546326
NHZ4060-15,0.006924441,0.011358555,0.012995675,0.01283945,0.010947503,-0.006854875,0.0050014947,0.007452864,0.007013874,-0.0037247762,-0.0075836796,0.009375287,0.011541573,0.00973559,0.00323309,0.013970742,-0.0064585246,-0.0035798177,0.012020964,-0.0068587232,-0.006621808,-0.005091654,-0.013533359,6.86869e-05,0.0125333145,0.006599782,-0.0075874254,0.0089869145,0.006129658,0.0034874845,0.012066951,0.009114103,-0.012351358,0.0068916827,0.015431244,0.006932279,0.006825939,-0.013243711,-0.008122856,0.007502388,0.0023511592,-0.0022528935,-0.008872978,0.011751004,-0.00018444285,0.0032512657,0.010300491,-0.013678307,0.0018319488,-0.006104851,-0.0009373147,0.006483596,0.004883716,-0.0029597152,-0.0016554929,0.0013246592,0.00994632,-0.0036643483,-0.0060513355,-0.011596728,-0.01394376,-0.0071560238,-0.0014940612,-0.0046626125
ESHT026-21,-0.008107502,-0.009193165,-0.004269814,0.0055821165,-0.0005175043,-0.010739986,0.0067654215,0.010923108,-0.015468687,0.005569797,0.00694306,-0.0064007957,0.012141205,0.015057975,-0.0064803604,-0.010876736,-0.0061536264,0.008666042,0.0048499107,-0.0020023044,-0.013459487,-0.012647934,0.002403153,-0.0063977204,0.00931748,-0.006590262,0.0034927465,0.0028479248,0.0028008595,-0.014209032,0.0011947583,0.0116882175,0.011377044,-0.013192004,-0.002680067,0.0011728294,-0.006622689,-0.0043204427,-0.0019132216,0.0016270783,0.005396664,-0.0092367735,-0.0034745857,-0.00014142506,-0.006163517,-0.010870367,-0.007640684,-0.012869472,0.010866519,-0.014694747,-0.0031016562,0.010536304,-0.013324531,-0.0051691327,-0.0011513401,-0.008178966,-0.0040189475,0.004983099,-0.0063798204,0.0140026305,0.00030187517,-0.009621229,-0.0046361275,0.012294386
BCL0306-15,-0.19692142,0.19824342,0.32153913,0.30229807,-0.25839776,-0.25327632,0.47497624,0.2459521,-0.023670487,-0.22908363,0.3733027,0.20544301,0.27845037,-0.09356155,-0.18544452,-0.066292495,-0.027748622,0.21641666,0.19261557,0.13411903,-0.10938315,0.23494494,0.3783919,-0.39872506,0.04253553,0.19871978,-0.14401072,0.25075057,0.058195014,0.08794804,0.17201439,0.3115392,-0.34895837,-0.24836715,0.017979521,0.08855226,-0.009742576,0.24376161,0.25912768,-0.105516516,0.30889964,0.13052028,-0.026877163,-0.094299845,0.042228065,-0.037463587,-0.11492949,-0.25221893,-0.21930437,0.24682592,0.20823821,0.11087815,-0.042564023,0.23433629,0.21472214,-0.042469386,0.09131591,-0.16547264,0.084277816,-0.26082534,0.18783751,-0.1568908,-0.1897294,-0.0639555
ESTB019-17,-0.15542322,0.119376294,-0.0057181497,-0.02413802,-0.05071365,-0.24229102,0.26969707,0.07238063,0.21461344,0.081976876,0.25947893,0.3883945,0.3556974,-0.0740822,-0.11120799,0.032807063,-0.11172975,0.06440679,0.5641935,0.4545256,-0.026208945,-0.023892736,0.17119779,-0.44860217,-0.18103153,0.097351655,-0.19284704,0.034475036,0.47137392,0.085977875,0.5033963,0.27571693,-0.6166523,0.08753323,0.2093489,0.02191227,-0.0045171888,0.17369208,0.40260836,0.16971497,0.5255644,-0.032588087,0.07564288,0.06472064,0.14893977,0.10921075,0.31466502,-0.39166525,-0.2599564,0.3036523,0.39850283,-0.024335492,0.046154022,0.047453474,0.2375471,-0.106822416,0.07342389,-0.050572444,0.18438698,-0.2869631,0.084874555,-0.21671818,-0.19679226,0.1294476
NHT1002-15,0.00076667033,-0.0074389037,0.014302086,-0.010036755,0.004803328,-0.0074260253,-0.0075230766,-0.014785897,0.0028865673,-0.0002605319,-0.012680221,0.0066984463,0.0069291387,-0.013954518,-0.006515609,0.011702994,-0.011608254,-0.0132380575,-0.0008608103,-0.0015609823,0.013375415,0.009599293,0.0026992075,0.0072005074,-0.014851183,-0.007283902,-0.009952016,0.0035169292,0.007686628,-0.0102149565,-0.012614761,0.0008172225,-0.0018843208,0.009170255,0.003052093,0.009719143,0.013458729,0.006254988,-0.014426654,-0.008030757,-0.0034566633,0.010997532,-0.013113566,-0.013339726,-0.014563287,-0.009011352,-0.0029808227,-0.015203873,-0.014114812,-0.012443641,-0.013923867,-0.014498511,-0.0021249782,-0.011808461,-0.0039037783,0.00025007874,0.008029234,-0.014238594,-0.0070972983,0.011832682,0.009446783,-0.0047115926,0.008195402,0.012523742
NHZ1003-15,-0.12386108,0.28743342,0.12406211,0.15658368,0.037743755,-0.13887392,0.2568124,0.27189746,0.160024,-0.045280393,0.36060736,0.06641263,0.48260525,-0.13375989,-0.24224946,-0.11162427,-0.17293139,-0.051630918,0.4316991,0.35368717,-0.37910903,0.072595336,0.513849,-0.3871071,-0.1615574,0.3649439,-0.04237473,0.15760988,0.10923102,0.020994138,0.067028396,0.17764927,-0.48412728,-0.0394818,-0.07117095,0.19009082,-0.20568012,0.25469095,0.33982038,0.08365106,0.43142912,0.10727525,0.05388947,-0.04071534,0.046505366,0.05790978,0.23615977,-0.30207372,-0.21871802,0.27715015,0.23790768,0.18797362,-0.0019826058,0.09469863,0.016392635,-0.027343787,0.06458099,-0.15729415,0.2391266,-0.43656367,0.1982308,0.02215957,-0.21982858,-0.14813398
MCNC001-23,-0.2756112,0.31476495,0.11413084,-0.06959119,0.10669507,-0.2635139,0.4247813,-0.2369161,0.26134604,-0.4750355,0.07935344,0.17120586,0.6449271,-0.30722088,-0.21081896,0.18062836,-0.030701078,0.22906847,0.440288,0.3421562,-0.5299276,-0.14604649,0.25844082,-0.5521533,-0.4690884,0.38188347,-0.32164773,-0.22177222,0.35680574,-0.18653096,0.1991812,0.29553044,-0.8730434,-0.34982312,0.19580716,0.12018041,-0.6949206,0.5266467,0.080474876,0.0790416,0.62734985,0.3441643,0.0967554,0.14574732,0.23911865,-0.26307067,0.35194787,-0.22681671,-0.25106254,0.27392128,0.26022077,0.1222556,-0.10566932,0.5820031,0.2013136,-0.08665615,-0.37212503,-0.102158755,0.1359034,-0.49603468,-0.03754393,-0.04544348,-0.25594795,-0.16152804
ESZB032-17,-0.09122787,0.09600915,0.11721573,0.05258846,0.0030956627,-0.11208294,0.13289733,-0.031727936,0.043670017,-0.019400956,0.10400548,0.12868175,0.19351985,-0.21200216,-0.09389278,0.012180823,-0.06777205,0.11320146,0.26142675,0.26259312,-0.16600193,0.075843215,0.13252847,-0.2636197,-0.09813718,0.23413724,-0.08718605,0.026082363,0.21671525,0.10128061,0.1638994,0.19012184,-0.37594798,-0.04130288,-0.0008152835,0.026895607,-0.12171748,0.23654035,0.17912436,0.02821088,0.31179172,0.044565234,0.07956045,0.026313124,0.02217882,-0.013568117,0.12436175,-0.3308828,-0.13852347,0.064540684,0.27539995,-0.0053159297,0.010971536,0.193092,-0.0021498133,-0.03732113,-0.022584891,-0.021110076,0.085197985,-0.2076032,0.06548577,-0.10446214,-0.09430785,0.084818326
NHT1053-15,-0.1523676,0.14889319,0.20322116,0.09940156,-0.018848116,-0.13892648,0.22466764,0.0052497396,0.007155458,-0.059236526,0.24329035,0.20482641,0.20458496,-0.16512348,-0.14440063,-0.022014752,0.0039607678,0.14199264,0.30659127,0.22315255,-0.12173114,0.025453238,0.24412075,-0.36949643,-0.16520777,0.18836138,-0.119010106,0.07813314,0.26794398,0.07906668,0.14750175,0.22357479,-0.48185244,-0.015687646,-0.0059489836,0.07104631,0.0244059,0.26785153,0.2097329,-0.08223943,0.29071248,0.1496303,0.05044527,-0.07156031,0.13573249,0.049987346,0.10444468,-0.33193377,-0.18388276,0.10612128,0.24586694,0.047512818,-0.04218681,0.1827935,0.108899385,-0.00500043,-0.021824976,-0.052402016,0.06265941,-0.2743817,0.13904178,-0.08542707,-0.105219446,-0.00528114
NHZ1008-15,-0.015414274,0.018140629,0.021908991,-0.007906217,0.00019687659,-0.021801459,0.03332815,-0.0005162337,0.004691359,0.003280345,0.027865944,0.016722044,0.027111141,-0.040404543,-0.021788118,0.0016602013,-0.018750539,0.008268067,0.050675806,0.03483054,-0.043643683,-0.0017260587,0.017520703,-0.06365949,-0.033553127,0.043257028,-0.024744311,-0.0029501054,0.051730447,0.020641189,0.017986821,0.03808584,-0.059925273,-0.014687904,-0.011129008,-0.00792825,0.0028843188,0.02767623,0.033220634,-0.008143351,0.04759508,0.0059883217,0.002001925,-0.002027511,-0.008110548,0.00747901,0.022267565,-0.07537291,-0.032155283,-0.00913939,0.050947092,0.009383362,-0.0068942355,0.030634126,0.012037997,-0.019485563,0.007947167,-0.0071549998,0.014709212,-0.045034025,0.0022515268,-0.030831512,0.0033520586,0.021062898
NHZ1009-15,-0.14588664,0.17842995,0.17636257,0.117175385,-0.026156954,-0.15786512,0.2081311,0.022220919,0.063257895,-0.0689699,0.22128178,0.17158905,0.2146542,-0.1892688,-0.1418243,-0.040922545,-0.03024172,0.09990744,0.29332078,0.24635872,-0.20856145,0.08969695,0.22938353,-0.3326507,-0.104397215,0.22562805,-0.13281198,0.069087945,0.16053592,0.12857677,0.10466215,0.19694218,-0.50115347,-0.009631367,0.007221179,0.09694827,-0.050442062,0.2444054,0.19966035,-0.028955223,0.2848857,0.07182988,0.10547485,-0.07097994,0.077255115,0.024997653,0.13036473,-0.30641353,-0.18812706,0.12086909,0.256865,0.044696845,-0.027450625,0.17797238,0.09181969,-0.014185416,-0.034872558,-0.087597,0.10823087,-0.27189183,0.10863299,-0.15904553,-0.11895394,-0.021591024
NHZ1076-15,0.1024326,0.7253067,0.30960152,0.12076233,0.22513252,-0.4895205,0.4397762,-0.33225256,0.15130365,0.117795534,0.5603664,0.25575393,1.0156819,-0.7418861,0.15463656,0.3641316,0.053222146,0.2411962,0.7985775,0.26887602,-0.13198791,0.18760617,0.43051532,-0.6535423,-0.32835394,0.57437444,-0.15177931,0.6363769,0.5508994,-0.15671466,0.32436585,0.6630047,-0.7605357,0.108820565,-0.1624955,-0.50763834,0.13859238,0.5893145,0.40077987,0.12144575,1.0174011,0.41365948,-0.13515747,-0.10121203,0.27401486,0.1672279,0.10756867,-0.49204707,-0.39375812,0.26589465,0.28006983,0.15212178,-0.062962025,0.39498386,0.13805315,-0.033348102,0.04467741,-0.0908849,0.070727155,-0.6024302,0.14974397,-0.38467038,0.1714218,0.05268141
NHBT001-23,-0.082579575,0.09253207,0.10404611,0.06509621,-0.00276722,-0.12667802,0.12224268,-0.0479321,0.081816696,-0.007120132,0.1276349,0.1297755,0.19624782,-0.17180604,-0.109874524,0.028518809,-0.0554767,0.09761137,0.25508833,0.23817109,-0.1798834,0.07112678,0.16269358,-0.27431,-0.10498642,0.17945483,-0.09519861,0.042347606,0.20470303,0.08622456,0.16136529,0.1854567,-0.3582952,-0.029466018,0.0017746347,0.023016676,-0.103149876,0.2340006,0.17026561,0.01888765,0.2996319,0.057755895,0.061803296,0.005617602,0.044019707,-0.016142558,0.090958916,-0.2850449,-0.14339356,0.041069895,0.22750139,0.0022862891,-0.013156271,0.17814489,0.008494358,-0.039095677,0.0033486055,-0.034309004,0.08133966,-0.21208695,0.07064247,-0.10692442,-0.06255092,0.07508461
ESTU023-17,-0.14092451,0.16776769,0.35171625,0.13301776,-0.06857381,-0.3033253,0.33935383,0.15493341,0.17243576,-0.113932334,0.32904822,0.21236713,0.21421172,-0.1518866,-0.18681696,-0.020762283,0.0044963136,0.112566374,0.21685275,0.26999354,-0.13475935,0.13406229,0.25637677,-0.3875191,-0.059797857,0.29025513,-0.0141375875,0.18816988,0.08247902,0.1995469,0.14625561,0.21319744,-0.28579903,-0.180946,-0.051712167,0.06977433,-0.020938566,0.27564895,0.24562867,-0.086926505,0.32007724,0.056305386,0.05166411,-0.024504311,0.028417835,0.0022947253,0.017126942,-0.309767,-0.14363113,0.09157916,0.27324024,-0.0008485759,0.032758478,0.18599638,0.12951958,-0.038646355,0.059250608,-0.029065348,0.06785468,-0.30373728,0.19805114,-0.0786211,-0.1628801,0.046445154
ESZM032-17,-0.033230033,0.009044005,0.028367385,0.018061085,0.007984154,-0.036416676,0.027072338,0.0127593605,0.011855121,-0.026076693,0.020821886,0.02888369,0.05039605,-0.041522734,0.0006159691,0.020852461,-0.018164348,0.038788393,0.046389095,0.039581094,-0.024724746,0.0034475063,0.014899012,-0.03994126,-0.0048706913,0.040134165,-0.0190321,0.018617533,0.023623073,0.010130925,0.034169346,0.041882943,-0.056621965,-0.014313593,0.0026619495,0.0071686073,-0.0028839735,0.058424942,0.026803063,-0.004160129,0.057385873,0.0007303421,0.015059934,-0.0092550535,-0.003720951,0.016441768,0.013278737,-0.06279483,-0.014450816,0.021238899,0.0444518,0.021576425,-0.005552658,0.04111005,0.030536499,-0.0034812395,0.01191647,0.001829717,0.019097624,-0.03158243,0.006992074,-0.030936869,-0.023289438,0.017789487
ESBM001-23,-0.034459088,0.102677874,0.03307867,0.09276088,-0.025149936,-0.1968775,0.22565433,-0.2609667,0.06519767,-0.063280754,0.12998101,0.33282235,0.2006237,-0.120315365,-0.081461705,-0.10337965,0.0063260095,0.024394494,0.3918874,0.2757721,0.001733037,0.13642512,0.10558525,-0.5542214,-0.10257951,0.42365348,-0.12209345,0.025949426,0.6175178,0.06820564,0.45229304,0.22512695,-0.64909345,0.0150813665,-0.23191026,0.4693468,-0.2782074,0.39324868,0.48689914,-0.03729377,0.7301758,-0.07907554,0.18426941,-0.027356949,-0.062538154,-0.1255422,0.3878796,-0.83995974,-0.23351023,0.17713366,0.63505065,0.31427187,0.18491498,0.1558937,-0.23244114,-0.12902865,-0.09887527,0.09371041,0.08926487,-0.484532,0.08258413,-0.16309047,0.0023347286,0.11369125
ESBM002-23,-0.2741004,0.006527413,-0.14544018,0.1594213,-0.1288908,-0.16813527,0.26424715,-0.40889552,-0.05640839,-0.11623735,0.13966347,0.5036591,0.20475031,-0.030943064,-0.13731514,0.1107684,-0.038677387,-0.08587335,0.566811,0.32000712,0.04345597,0.047458414,0.07725917,-0.59529877,0.113857135,0.49004585,-0.12476,-0.13592705,0.78278136,-0.11694444,0.5674742,0.38051063,-0.64040506,0.20278244,-0.1898691,0.77809584,-0.32316384,0.54842407,0.44054732,-0.02883745,0.88758165,-0.003384238,0.32878515,0.12487885,-0.14104398,-0.043016683,0.4201103,-1.0458202,-0.18026242,0.20854701,0.76442426,0.41652656,0.33817846,0.21613635,-0.3440047,-0.2338785,-0.16801375,0.25567567,0.027482478,-0.71096647,0.05729444,-0.24340893,-0.11127875,0.12538137
NHZ1077-15,-0.0843476,0.055735927,0.09172843,0.058941398,0.026575409,-0.09482437,0.11568057,-0.039895505,0.04384325,-0.0061667995,0.08277893,0.13782953,0.16661929,-0.14135034,-0.07631605,0.007394486,-0.051611837,0.09819984,0.21556829,0.17342316,-0.11847762,0.034748424,0.11671533,-0.21272834,-0.0538563,0.12982851,-0.057434585,0.011348013,0.1618475,0.06518952,0.1251176,0.15218736,-0.29822287,-0.0008034835,0.0027671473,0.006592331,-0.062020123,0.17851943,0.14347096,0.039786834,0.23852775,0.04254871,0.06732666,-0.0034807862,0.03551749,0.02101666,0.089520246,-0.24021421,-0.114222854,0.04395845,0.17861493,0.013678739,0.0067213704,0.124997325,0.022465153,-0.02190551,-0.030240843,-0.025509994,0.08540746,-0.17083766,0.060542926,-0.080925696,-0.08918497,0.06260064
NHBB009-23,-0.0989652,0.08024423,0.10360581,0.07889418,0.009881807,-0.114589415,0.14614542,-0.018984396,0.052954033,-0.015062079,0.12757622,0.16694653,0.19849162,-0.19478971,-0.10906738,0.012093081,-0.05560949,0.12278766,0.2760926,0.23359697,-0.19028759,0.034789383,0.1822204,-0.27121207,-0.06760711,0.18570614,-0.07782276,0.04471617,0.20866379,0.073979326,0.15051244,0.18038814,-0.36996862,-0.023104401,0.0066395514,0.025754957,-0.109852746,0.22197787,0.16971703,0.031949267,0.3155364,0.038465273,0.06597429,-0.011417741,0.04881263,-0.007885066,0.12760165,-0.3036631,-0.13544653,0.050764456,0.24285713,0.02038008,0.015264649,0.1912145,0.03465503,-0.019371795,-0.03447991,-0.015781332,0.1076007,-0.24714026,0.09241113,-0.12509598,-0.097090185,0.086430654
NHT1013-15,-0.11677691,0.10929644,0.14147843,0.14252175,-0.041447423,-0.1508078,0.2582133,0.061598532,0.04246712,-0.06642128,0.17410965,0.19153959,0.2615238,-0.13532418,-0.10583682,-0.037216935,-0.031759646,0.15750593,0.23840249,0.22161834,-0.17063993,0.06735187,0.24461159,-0.2851946,-0.056077074,0.24544652,-0.09143807,0.0777135,0.14742109,0.06344049,0.16566281,0.23602362,-0.42326424,-0.057237122,0.018484382,0.090171024,-0.10707078,0.2272444,0.18126898,0.017778791,0.32843882,0.06465862,0.05831119,-0.062478885,0.041463926,-0.0086076185,0.028921967,-0.31829467,-0.17543508,0.108289704,0.21428677,0.06009973,0.01483089,0.213867,0.052215133,-0.04611737,-0.0187298,-0.036848955,0.12443043,-0.26113352,0.090433046,-0.12614962,-0.11543886,0.05027646
BCL0308-15,-0.10953255,0.17245686,0.17129259,0.14510389,-0.0638189,-0.18908942,0.2541036,0.07533483,0.054997716,-0.07273676,0.19710456,0.17677575,0.24724315,-0.15499601,-0.14026412,-0.0062745563,-0.07794278,0.14391324,0.28950593,0.28120506,-0.21669604,0.07626288,0.2511999,-0.33242688,-0.06211364,0.19189858,-0.11763668,0.12500265,0.16548835,0.11178744,0.17162313,0.27198473,-0.42763773,-0.07807643,-0.013376768,0.07981543,-0.098182715,0.24894565,0.2389312,0.0031792498,0.3587709,0.057919163,0.06158149,-0.0104687745,0.04919949,0.018419158,0.04903809,-0.29708716,-0.1802038,0.11351217,0.24210913,0.041004036,-0.025229655,0.20726404,0.040237594,-0.026960809,0.012140395,-0.06247732,0.14043553,-0.2674101,0.115830295,-0.111125536,-0.13062711,0.03388362
ESTB013-17,-0.11214562,0.085011184,0.12722832,0.15198964,-0.030712401,-0.09623392,0.14922838,0.010619653,0.108717084,-0.016707374,0.14426357,0.17931394,0.19049346,-0.1659169,-0.15506302,-0.03897473,-0.07752846,0.2130952,0.22997217,0.24065661,-0.11624696,0.082669415,0.17600362,-0.2552525,-0.101628765,0.28665665,-0.09425922,0.095527105,0.090067714,0.06093571,0.1280419,0.18668643,-0.43542346,-0.13280658,0.057324834,-0.013615304,-0.029904222,0.28519785,0.17907234,-0.033271823,0.33137754,0.014563867,0.121933475,-0.008570757,0.042514127,0.036317762,0.07733953,-0.2622102,-0.09947615,0.051774755,0.28450269,-0.025567548,0.02560988,0.15785618,0.07385014,0.026122138,-0.079223104,-0.009976881,0.010766677,-0.24586561,0.14030658,-0.16657937,-0.11391833,0.06325891
NHZ6015-18,-0.06828161,0.09071105,0.09299853,0.061638437,0.016040841,-0.076703265,0.11281713,-0.044242866,0.045451593,-0.022660518,0.09730551,0.11419994,0.1635349,-0.14793833,-0.080630004,0.0010553439,-0.028675755,0.08333891,0.22608764,0.19772151,-0.1692855,0.032344107,0.12990531,-0.23071475,-0.08766599,0.17828801,-0.080392435,0.015690815,0.18933855,0.062769815,0.11165318,0.15568186,-0.30628014,-0.0072507896,-0.004431047,0.028019043,-0.082637414,0.20051613,0.15483078,0.028333336,0.25658232,0.0396057,0.062150165,-0.0072662258,0.030500902,-0.003016237,0.089246094,-0.22357355,-0.116734624,0.046493236,0.19783054,0.013988796,0.0005578784,0.14756957,0.027515335,-0.036699153,-0.024278311,-0.033533745,0.06546956,-0.19674931,0.055133246,-0.09696183,-0.07271435,0.032819457
NHZ6013-18,-0.04166125,0.022626592,0.027891189,0.026664862,0.03230569,-0.058240525,0.0585082,-0.059167888,0.05151926,0.00012850833,0.03559901,0.058941767,0.07959792,-0.09692416,-0.027658196,0.0066326503,-0.009419322,0.052134078,0.13053209,0.11795983,-0.09247242,0.014627519,0.044891514,-0.103126906,-0.047489192,0.089623176,-0.028843885,-0.017581888,0.09578306,0.028592367,0.07924967,0.09220901,-0.19051723,0.016682567,0.0057809595,-0.00031387195,-0.05045302,0.11917204,0.0858396,0.013659327,0.15365078,0.029127492,0.06227369,0.012936989,0.008947175,-0.00080818596,0.06200452,-0.15155493,-0.061756928,-0.0039640483,0.1114487,-0.008462429,0.025173109,0.0710741,-0.014080767,-0.0010816329,-0.005801927,0.01720518,0.051306065,-0.08796297,0.030799452,-0.049953256,-0.032250114,0.052862573
NHZ6011-18,-0.06998809,0.056904968,0.066010244,0.052041765,0.026432082,-0.07319858,0.08157642,-0.0027706362,0.038609434,-0.0105353715,0.062943414,0.08191493,0.13943575,-0.11422159,-0.07595746,0.00035631587,-0.03208267,0.08616038,0.18887308,0.14483017,-0.12528361,0.031051388,0.11049186,-0.1757892,-0.08002664,0.121196106,-0.045782246,0.031484675,0.13463473,0.058206026,0.10477022,0.12513694,-0.23837304,-0.0137079,-0.00782685,0.032748498,-0.052137177,0.14870323,0.11149744,-0.0021177481,0.18833487,0.037880667,0.04409932,-0.006196836,0.036799412,0.006471985,0.07298359,-0.20699857,-0.09417095,0.030823726,0.16789573,0.018153252,0.008580805,0.09609394,0.034852944,-0.0069006137,-0.0035690165,0.000459701,0.048310526,-0.145055,0.03592684,-0.061977465,-0.041256405,0.030369235
NHBT002-23,0.029333223,0.5353035,0.25228375,0.1103,0.17994444,-0.3860998,0.32549447,-0.2557297,0.10830744,0.059575368,0.38488597,0.21433775,0.7852368,-0.5391932,0.104374185,0.26759046,0.028758392,0.20641601,0.6361621,0.28821287,-0.16973089,0.12748738,0.35019755,-0.5681568,-0.28197777,0.44201514,-0.15216865,0.44374442,0.43485415,-0.09748502,0.3041577,0.53416044,-0.6587947,0.05430918,-0.0963879,-0.34314454,0.044649206,0.5090355,0.32809955,0.09953874,0.82563,0.31514946,-0.056254946,-0.051143788,0.1864957,0.09691971,0.15291418,-0.45943093,-0.35481107,0.22850886,0.28835985,0.09070709,-0.047899064,0.3047051,0.11913622,-0.029541612,0.0027328748,-0.06883806,0.07861734,-0.5207747,0.13102974,-0.3056679,0.06443741,0.08363858
ESZM036-17,-0.07096398,0.04675303,0.06483626,0.039041594,0.027131649,-0.06639737,0.06889549,-0.011882842,0.029786682,-0.0060823094,0.05446556,0.08390545,0.123687394,-0.11744822,-0.06279564,0.0077977544,-0.042950578,0.06104924,0.16756567,0.13587227,-0.09251279,0.039318554,0.06997196,-0.16813087,-0.06977459,0.119959384,-0.05059857,0.001083643,0.122158825,0.036229625,0.104957916,0.11838878,-0.21016556,-0.018189754,-0.009610508,0.0057934993,-0.043495856,0.13226412,0.09844497,0.018279748,0.17812578,0.0110941585,0.047004342,-0.008426043,0.029088134,0.0047004945,0.05282488,-0.1865395,-0.06557193,0.04669268,0.14620553,-0.00918921,0.02694913,0.113575555,0.006309051,-0.011729186,0.00083148025,-0.00232421,0.06003435,-0.11503316,0.055103596,-0.054036632,-0.06190339,0.025308706
ESZE089-17,-0.02930556,0.029541166,0.036805276,0.027453998,0.013575789,-0.04010224,0.03450632,-0.035684265,0.01911234,-0.005894143,0.05843936,0.060526993,0.058459558,-0.07680418,-0.0397334,0.010816637,-0.032745864,0.0266314,0.08229985,0.10485865,-0.049108863,0.028231751,0.065022044,-0.11625121,-0.031713765,0.076135725,-0.025473844,0.01203415,0.07442104,0.046769477,0.046392456,0.065957405,-0.15119974,-0.017712103,-0.0070912335,0.01108019,-0.04591049,0.08794785,0.065862246,0.018450078,0.10453199,0.01430212,0.03696178,0.0049971407,-0.007327714,0.0012697953,0.05229736,-0.13083352,-0.046647936,0.017106807,0.112186715,-0.006504609,-0.0044897525,0.079493254,-0.00230442,-0.009951866,-0.0039023191,-0.010686058,0.031885255,-0.065966904,0.0342115,-0.046403408,-0.043924216,0.034394026
NHZ1014-15,-0.060168047,0.118729845,0.075963825,0.051887106,-0.018449029,-0.096687056,0.1302378,-0.016342442,0.036572035,-0.01771248,0.11322262,0.09914599,0.18628857,-0.17163467,-0.072176725,0.029307991,-0.052399017,0.07893154,0.19783537,0.16126044,-0.12478022,0.050929613,0.124789745,-0.2211578,-0.08485839,0.16637656,-0.072249115,0.063247465,0.17319608,0.03597825,0.11716422,0.15661786,-0.26947102,-0.024458865,-0.03304184,-0.019864999,-0.041197475,0.17650138,0.13661501,0.029542513,0.24959356,0.043342616,0.04391797,-0.010455668,0.05706847,-0.00427912,0.040906556,-0.23105313,-0.10946789,0.082341395,0.19319437,0.028522937,-0.014542631,0.13244054,0.025134582,-0.014038239,0.002720526,-0.03976255,0.056972925,-0.16215962,0.054979187,-0.093468145,-0.04872778,0.027383808
